-196.9256 -187.0841 -183.5862 -177.8431 -167.0645
26.7751 24.8041 23.9318 23.6485 23.0259
111.2999 104.7804 102.2034 99.7100 94.8930
-114.0709 -108.8442 -107.1151 -103.4157 -96.5408
11.2501 10.3227 9.8939 9.8529 9.7235
49.3804 46.5603 45.4624 44.2992 42.0656
26.7751 24.8041 23.9318 23.6485 23.0259
26.7751 24.8041 23.9318 23.6485 23.0259
55.1749 52.3120 51.2659 49.7397 46.8602
66.4570 63.8090 63.0505 60.5831 56.0490
98.5112 88.5633 83.6640 84.7412 86.0416
-78.4899 -74.1911 -72.5610 -70.5678 -66.7728
111.2999 104.7804 102.2034 99.7100 94.8930
26.7751 24.8041 23.9318 23.6485 23.0259
-23.2224 -17.5226 -14.2650 -17.1562 -21.9309
-14.1989 -14.6281 -15.0897 -13.7804 -11.4865
-4.5811 -8.9755 -11.7920 -8.0238 -1.6153
57.2151 53.7750 52.3948 51.1827 48.8244
106.4113 101.9742 100.6362 96.8403 89.8428
111.2999 104.7804 102.2034 99.7100 94.8930
116.3613 104.7500 99.0502 100.2132 101.5638
-88.0131 -82.4392 -80.1391 -78.4964 -75.2445
8.2401 8.9610 9.5246 8.3939 6.4342
98.5112 88.5633 83.6640 84.7412 86.0416
67.7424 68.1182 69.2724 64.3399 55.6226
-92.7266 -87.4278 -85.3642 -83.1824 -78.9923
-71.3874 -67.3904 -65.8532 -64.1089 -60.7734
26.7751 24.8041 23.9318 23.6485 23.0259
75.4577 69.9813 67.5722 66.7121 64.8532
98.6558 95.7279 95.2307 90.7793 82.7123
98.5112 88.5633 83.6640 84.7412 86.0416
26.7751 24.8041 23.9318 23.6485 23.0259
8.2401 8.9610 9.5246 8.3939 6.4342
26.7751 24.8041 23.9318 23.6485 23.0259
72.0044 65.2780 62.0384 62.3975 62.6225
-82.8136 -78.1296 -76.3167 -74.3303 -70.5239
-10.5668 -8.5029 -7.3525 -8.2517 -9.7189
84.0572 75.3604 71.0492 72.1323 73.5197
8.2401 8.9610 9.5246 8.3939 6.4342
111.2999 104.7804 102.2034 99.7100 94.8930
26.7751 24.8041 23.9318 23.6485 23.0259
-91.9313 -86.7823 -84.8017 -82.5567 -78.2636
-101.5393 -95.1644 -92.5457 -90.6068 -86.7811
-14.1989 -14.6281 -15.0897 -13.7804 -11.4865
26.7751 24.8041 23.9318 23.6485 23.0259
-79.4238 -74.9085 -73.1555 -71.2685 -67.6485
96.5095 93.6496 93.1659 88.8080 80.9108
98.9099 88.6180 83.5085 84.8288 86.5390
27.3187 25.5327 24.7838 24.3178 23.3829
26.7751 24.8041 23.9318 23.6485 23.0259
26.7751 24.8041 23.9318 23.6485 23.0259
72.0044 65.2780 62.0384 62.3975 62.6225
26.7751 24.8041 23.9318 23.6485 23.0259
45.7277 43.3321 42.4507 41.2038 38.8479
8.2401 8.9610 9.5246 8.3939 6.4342
91.8012 84.7380 81.5558 80.8245 79.0968
8.2401 8.9610 9.5246 8.3939 6.4342
56.2786 52.4361 50.7909 49.9593 48.2506
11.0493 11.9622 12.6843 11.2102 8.6541
95.5741 91.9385 90.9559 87.2718 80.5211
-273.4960 -258.5767 -252.9344 -245.9419 -232.6386
-0.1613 2.2463 3.7532 1.8715 -1.3155
-97.6865 -91.5800 -89.0773 -87.1910 -83.4752
-80.3039 -75.7217 -73.9387 -72.0440 -68.4064
-24.4764 -25.1356 -25.8807 -23.6870 -19.8402
72.0044 65.2780 62.0384 62.3975 62.6225
5.8073 7.7611 9.0644 7.1310 3.8244
124.2878 118.4855 116.5343 112.5880 105.2403
53.5383 50.8199 49.8421 48.3144 45.4409
98.5112 88.5633 83.6640 84.7412 86.0416
8.2401 8.9610 9.5246 8.3939 6.4342
72.0044 65.2780 62.0384 62.3975 62.6225
8.2401 8.9610 9.5246 8.3939 6.4342
7.3318 1.9234 -1.3671 2.3828 8.6968
-68.5432 -64.7082 -63.2339 -61.5569 -58.3507
111.2999 104.7804 102.2034 99.7100 94.8930
-14.1989 -14.6281 -15.0897 -13.7804 -11.4865
-231.4151 -220.0676 -216.0935 -209.1735 -196.2172
28.1934 26.2019 25.3360 24.9717 24.2044
137.5783 129.5801 126.4327 123.3030 117.2679
-135.1114 -129.3655 -127.5964 -122.8648 -114.1292
9.2474 8.5458 8.2315 8.1500 7.9627
53.5449 50.6684 49.5916 48.1877 45.5240
28.1934 26.2019 25.3360 24.9717 24.2044
28.1934 26.2019 25.3360 24.9717 24.2044
71.6066 67.9609 66.6470 64.6114 60.7813
84.3387 81.0542 80.1392 76.9482 71.0928
120.7577 108.4723 102.4096 103.8016 105.5168
-97.9663 -92.3817 -90.2099 -87.8942 -83.4493
137.5783 129.5801 126.4327 123.3030 117.2679
28.1934 26.2019 25.3360 24.9717 24.2044
-26.0951 -18.9995 -14.9059 -18.6978 -24.9831
-16.4515 -17.4126 -18.2380 -16.3564 -13.0809
-1.3973 -7.0813 -10.6630 -6.0989 1.6411
66.3366 62.1525 60.4296 59.1780 56.7043
130.4774 125.1248 123.5393 118.8158 110.1185
137.5783 129.5801 126.4327 123.3030 117.2679
142.0317 127.7269 120.6870 122.2102 124.0346
-100.3877 -93.8279 -91.0777 -89.3629 -85.9231
11.4434 12.0265 12.5471 11.3055 9.1408
120.7577 108.4723 102.4096 103.8016 105.5168
82.8806 83.5772 85.1378 78.9169 67.9360
-115.2001 -108.3839 -105.6739 -103.1468 -98.2517
-89.1430 -83.9352 -81.8799 -79.8720 -75.9955
28.1934 26.2019 25.3360 24.9717 24.2044
88.5022 81.8224 78.8359 78.0290 76.1906
120.9934 117.5895 117.0968 111.4906 101.3481
120.7577 108.4723 102.4096 103.8016 105.5168
28.1934 26.2019 25.3360 24.9717 24.2044
11.4434 12.0265 12.5471 11.3055 9.1408
28.1934 26.2019 25.3360 24.9717 24.2044
86.6783 78.3176 74.2526 74.8921 75.5139
-103.1378 -97.0736 -94.6714 -92.3787 -87.9452
-14.8189 -12.5239 -11.2864 -12.0762 -13.3354
102.8252 92.1356 86.8300 88.1949 89.9599
11.4434 12.0265 12.5471 11.3055 9.1408
137.5783 129.5801 126.4327 123.3030 117.2679
28.1934 26.2019 25.3360 24.9717 24.2044
-114.0545 -107.4373 -104.8364 -102.2313 -97.2103
-116.7891 -109.2652 -106.1331 -104.0536 -99.9085
-16.4515 -17.4126 -18.2380 -16.3564 -13.0809
28.1934 26.2019 25.3360 24.9717 24.2044
-99.2140 -93.3399 -91.0035 -88.8301 -84.6194
118.6531 115.3119 114.8268 109.3315 99.3893
121.0256 108.3137 101.9873 103.6962 105.9470
36.1581 33.8227 32.8492 32.2101 30.9348
28.1934 26.2019 25.3360 24.9717 24.2044
28.1934 26.2019 25.3360 24.9717 24.2044
86.6783 78.3176 74.2526 74.8921 75.5139
28.1934 26.2019 25.3360 24.9717 24.2044
48.8083 46.4682 45.6634 44.1620 41.3585
11.4434 12.0265 12.5471 11.3055 9.1408
107.8949 99.3070 95.3874 94.7531 93.1040
11.4434 12.0265 12.5471 11.3055 9.1408
65.5833 60.8928 58.8423 58.0404 56.3326
7.0983 8.7771 9.9257 8.1200 5.0230
116.4833 112.1554 111.0224 106.4513 98.0865
-323.4849 -306.1045 -299.5976 -291.1180 -275.0291
-7.0777 -3.4773 -1.3167 -3.6625 -7.5993
-112.0764 -104.8647 -101.8643 -99.8620 -95.8728
-100.3348 -94.3848 -92.0161 -89.8256 -85.5800
-29.0938 -30.1455 -31.1992 -28.3809 -23.4512
86.6783 78.3176 74.2526 74.8921 75.5139
-0.2259 2.9043 4.8632 2.4179 -1.7237
152.2801 145.2780 142.9543 138.0351 128.8901
58.2914 55.5765 54.6654 52.8095 49.3548
120.7577 108.4723 102.4096 103.8016 105.5168
11.4434 12.0265 12.5471 11.3055 9.1408
86.6783 78.3176 74.2526 74.8921 75.5139
11.4434 12.0265 12.5471 11.3055 9.1408
12.9138 5.9845 1.8164 6.3798 14.0425
-86.2554 -81.2153 -79.2259 -77.2839 -73.5343
137.5783 129.5801 126.4327 123.3030 117.2679
-16.4515 -17.4126 -18.2380 -16.3564 -13.0809
-168.9664 -157.7068 -152.9408 -150.2264 -144.7280
48.5975 44.6974 42.9120 42.6514 41.9511
65.4664 60.3683 58.0607 57.5872 56.4365
-91.1262 -84.6189 -81.7761 -80.6539 -78.2676
37.8054 34.6235 33.1418 33.0554 32.7077
72.1613 66.9272 64.6252 63.8004 62.0187
48.5975 44.6974 42.9120 42.6514 41.9511
48.5975 44.6974 42.9120 42.6514 41.9511
13.4734 11.8996 11.0958 11.4108 11.8727
20.3627 18.6731 17.8902 17.8246 17.6051
80.1457 73.3980 70.2555 70.0741 69.3398
-33.8017 -32.3208 -31.8511 -30.7014 -28.5737
65.4664 60.3683 58.0607 57.5872 56.4365
48.5975 44.6974 42.9120 42.6514 41.9511
-38.7265 -34.5875 -32.5185 -33.1214 -33.9366
-10.5973 -9.4768 -8.9182 -9.0736 -9.2806
-4.3590 -5.6019 -6.4401 -5.1646 -2.9804
50.6752 48.0405 47.0763 45.6788 43.0412
54.3330 50.8725 49.4404 48.4416 46.4601
65.4664 60.3683 58.0607 57.5872 56.4365
95.4410 87.6221 84.0156 83.6293 82.4665
-81.1497 -76.1939 -74.1881 -72.5293 -69.2868
-12.3975 -10.5319 -9.5306 -10.1487 -11.1297
80.1457 73.3980 70.2555 70.0741 69.3398
15.0476 15.3270 15.7062 14.4565 12.2592
-44.9286 -42.6607 -41.8485 -40.5560 -38.1269
-29.5373 -28.2898 -27.9084 -26.8673 -24.9460
48.5975 44.6974 42.9120 42.6514 41.9511
70.0265 65.6346 63.8315 62.4907 59.8463
42.1502 39.7850 38.8741 37.8483 35.8858
80.1457 73.3980 70.2555 70.0741 69.3398
48.5975 44.6974 42.9120 42.6514 41.9511
-12.3975 -10.5319 -9.5306 -10.1487 -11.1297
48.5975 44.6974 42.9120 42.6514 41.9511
67.6659 62.5378 60.2412 59.6408 58.2631
-37.7359 -35.9707 -35.3761 -34.1807 -31.9545
-11.0490 -8.3933 -6.8785 -8.2100 -10.4069
65.8380 60.5443 58.1192 57.7740 56.8387
-12.3975 -10.5319 -9.5306 -10.1487 -11.1297
65.4664 60.3683 58.0607 57.5872 56.4365
48.5975 44.6974 42.9120 42.6514 41.9511
-44.7701 -42.5367 -41.7440 -40.4352 -37.9794
-91.6682 -85.9989 -83.6886 -81.8707 -78.3025
-10.5973 -9.4768 -8.9182 -9.0736 -9.2806
48.5975 44.6974 42.9120 42.6514 41.9511
-34.8284 -33.2458 -32.7262 -31.5863 -29.4695
40.0000 37.7416 36.8685 35.9059 34.0620
80.1014 73.5230 70.4860 70.1745 69.2202
12.5499 11.3810 10.8185 10.8784 10.9130
48.5975 44.6974 42.9120 42.6514 41.9511
48.5975 44.6974 42.9120 42.6514 41.9511
67.6659 62.5378 60.2412 59.6408 58.2631
48.5975 44.6974 42.9120 42.6514 41.9511
69.3533 64.4452 62.3094 61.4205 59.5453
-12.3975 -10.5319 -9.5306 -10.1487 -11.1297
86.4591 80.6227 78.1371 76.8070 74.0932
-12.3975 -10.5319 -9.5306 -10.1487 -11.1297
52.4160 49.3568 48.1501 46.9671 44.6838
33.3476 31.5164 30.8209 29.9777 28.3717
50.2165 47.1873 45.9696 44.9136 42.8571
-225.8797 -210.6880 -204.2292 -200.7103 -193.5455
25.0478 24.1921 23.9954 22.9536 21.0551
-88.3785 -82.9887 -80.8089 -78.9964 -75.4551
-35.0822 -33.4534 -32.9083 -31.7873 -29.7014
-9.5118 -9.2387 -9.1965 -8.7601 -7.9701
67.6659 62.5378 60.2412 59.6408 58.2631
31.1783 29.6735 29.1532 28.2019 26.4243
69.8530 65.0695 63.0187 61.9976 59.8956
73.6390 68.5459 66.3523 65.3155 63.1667
80.1457 73.3980 70.2555 70.0741 69.3398
-12.3975 -10.5319 -9.5306 -10.1487 -11.1297
67.6659 62.5378 60.2412 59.6408 58.2631
-12.3975 -10.5319 -9.5306 -10.1487 -11.1297
6.0141 3.9352 2.7137 3.9364 5.9757
-26.0914 -25.0719 -24.7868 -23.8022 -21.9952
65.4664 60.3683 58.0607 57.5872 56.4365
-10.5973 -9.4768 -8.9182 -9.0736 -9.2806
-88.4129 -83.4186 -81.4873 -79.3615 -75.2891
20.5160 18.9235 18.2036 18.0512 17.6836
36.9296 34.4692 33.4278 32.8342 31.6318
-45.0848 -42.3328 -41.2194 -40.2967 -38.4933
13.7760 12.6098 12.0656 12.0394 11.9217
32.5771 30.4301 29.5262 28.9841 27.8921
20.5160 18.9235 18.2036 18.0512 17.6836
20.5160 18.9235 18.2036 18.0512 17.6836
8.9044 8.2051 7.8875 7.8278 7.6791
13.2525 12.5640 12.3122 11.9463 11.2558
41.8505 38.2453 36.5532 36.5226 36.2480
-25.5444 -24.4103 -24.0459 -23.1889 -21.6010
36.9296 34.4692 33.4278 32.8342 31.6318
20.5160 18.9235 18.2036 18.0512 17.6836
-15.6886 -13.5466 -12.4168 -13.0268 -13.9767
-1.2215 -1.0639 -0.9818 -1.0220 -1.0837
-4.4334 -5.3952 -6.0582 -4.9986 -3.1798
23.9665 23.0035 22.7249 21.8414 20.2170
32.1158 30.6082 30.0988 29.0856 27.1980
36.9296 34.4692 33.4278 32.8342 31.6318
49.8623 45.6790 43.7332 43.6087 43.1322
-43.2414 -40.8366 -39.9158 -38.8463 -36.8041
-0.1885 0.3519 0.6881 0.2761 -0.4208
41.8505 38.2453 36.5532 36.5226 36.2480
13.7397 14.1359 14.5705 13.3186 11.1244
-31.7224 -30.1789 -29.6417 -28.6836 -26.8915
-22.9478 -21.9357 -21.6125 -20.8374 -19.4019
20.5160 18.9235 18.2036 18.0512 17.6836
33.5446 31.6583 30.9308 30.1176 28.5611
26.9516 25.9935 25.7585 24.6668 22.6737
41.8505 38.2453 36.5532 36.5226 36.2480
20.5160 18.9235 18.2036 18.0512 17.6836
-0.1885 0.3519 0.6881 0.2761 -0.4208
20.5160 18.9235 18.2036 18.0512 17.6836
32.1491 29.7283 28.6469 28.3494 27.6741
-27.5451 -26.2684 -25.8417 -24.9599 -23.3192
1.2647 2.2998 2.9658 2.0655 0.5333
34.8734 31.9514 30.5929 30.5029 30.1645
-0.1885 0.3519 0.6881 0.2761 -0.4208
36.9296 34.4692 33.4278 32.8342 31.6318
20.5160 18.9235 18.2036 18.0512 17.6836
-31.4717 -29.9681 -29.4525 -28.4803 -26.6655
-49.1867 -46.4119 -45.3397 -44.1542 -41.8837
-1.2215 -1.0639 -0.9818 -1.0220 -1.0837
20.5160 18.9235 18.2036 18.0512 17.6836
-26.0785 -24.8786 -24.4802 -23.6384 -22.0733
25.7951 24.8831 24.6613 23.6125 21.6984
41.9368 38.3641 36.6935 36.6315 36.3031
8.3270 7.6531 7.3436 7.3034 7.1909
20.5160 18.9235 18.2036 18.0512 17.6836
20.5160 18.9235 18.2036 18.0512 17.6836
32.1491 29.7283 28.6469 28.3494 27.6741
20.5160 18.9235 18.2036 18.0512 17.6836
31.0460 29.0848 28.2765 27.6932 26.5395
-0.1885 0.3519 0.6881 0.2761 -0.4208
41.5717 38.9710 37.9047 37.1035 35.5248
-0.1885 0.3519 0.6881 0.2761 -0.4208
24.5936 23.3755 22.9455 22.2196 20.8589
12.9604 12.5707 12.5023 11.9214 10.8684
29.3740 28.1164 27.7264 26.7044 24.8165
-118.5601 -111.5961 -108.8390 -106.1980 -101.0923
9.7235 9.7841 9.9540 9.2407 7.9805
-47.4062 -44.7752 -43.7690 -42.5923 -40.3463
-26.2864 -25.0588 -24.6458 -23.8116 -22.2582
-11.3926 -11.0130 -10.9296 -10.4482 -9.5719
32.1491 29.7283 28.6469 28.3494 27.6741
12.6002 12.3587 12.3783 11.7056 10.4988
40.2978 38.1150 37.2934 36.2509 34.2702
33.9721 31.8844 31.0365 30.3523 29.0123
41.8505 38.2453 36.5532 36.5226 36.2480
-0.1885 0.3519 0.6881 0.2761 -0.4208
32.1491 29.7283 28.6469 28.3494 27.6741
-0.1885 0.3519 0.6881 0.2761 -0.4208
0.5967 -0.7592 -1.6010 -0.5759 1.1577
-21.1998 -20.2862 -20.0011 -19.2681 -17.9135
36.9296 34.4692 33.4278 32.8342 31.6318
-1.2215 -1.0639 -0.9818 -1.0220 -1.0837
-236.1211 -225.4934 -222.0342 -214.2262 -199.7406
29.6276 27.9779 27.3457 26.6145 25.2180
128.9661 122.5596 120.2931 116.5015 109.3911
-148.7938 -144.1634 -143.2790 -136.7340 -124.8530
16.2598 15.6524 15.4921 14.8567 13.6935
55.4115 52.6952 51.7441 50.0865 46.9831
29.6276 27.9779 27.3457 26.6145 25.2180
29.6276 27.9779 27.3457 26.6145 25.2180
77.0802 74.4734 73.8848 70.6578 64.7803
94.0563 91.3790 90.9764 86.6428 78.8000
72.3857 63.7185 59.2676 61.1264 63.8900
-73.6310 -68.7823 -66.7418 -65.5134 -63.0401
128.9661 122.5596 120.2931 116.5015 109.3911
29.6276 27.9779 27.3457 26.6145 25.2180
-26.7821 -21.0746 -17.8605 -20.5140 -24.8671
-40.8629 -42.0496 -43.3475 -39.6175 -33.0804
-39.5633 -42.0757 -44.1869 -39.5037 -31.3587
68.1392 63.6617 61.7793 60.6350 58.3335
136.1524 131.3569 130.1976 124.6477 114.5199
128.9661 122.5596 120.2931 116.5015 109.3911
83.1569 73.2007 68.0880 70.2227 73.3966
-101.9102 -95.4490 -92.7813 -90.8848 -87.1290
5.7423 5.2649 5.0436 5.0258 4.9650
72.3857 63.7185 59.2676 61.1264 63.8900
101.8686 101.7475 103.0530 96.1752 83.9803
-87.3222 -81.4810 -79.0041 -77.6187 -74.8066
-66.6050 -62.0831 -60.1521 -59.1477 -57.0914
29.6276 27.9779 27.3457 26.6145 25.2180
80.6439 74.3661 71.5249 70.9399 69.5194
131.7230 128.4052 128.1120 121.7036 110.1451
72.3857 63.7185 59.2676 61.1264 63.8900
29.6276 27.9779 27.3457 26.6145 25.2180
5.7423 5.2649 5.0436 5.0258 4.9650
29.6276 27.9779 27.3457 26.6145 25.2180
68.3279 61.2668 57.7677 58.6415 59.7581
-78.1430 -72.9080 -70.6866 -69.4530 -66.9468
-35.2729 -34.5068 -34.5050 -32.6928 -29.4346
51.7591 44.7071 40.9889 42.9898 46.1041
5.7423 5.2649 5.0436 5.0258 4.9650
128.9661 122.5596 120.2931 116.5015 109.3911
29.6276 27.9779 27.3457 26.6145 25.2180
-87.9829 -82.2563 -79.8602 -78.3395 -75.2946
-113.6797 -106.4790 -103.5074 -101.3866 -97.1880
-40.8629 -42.0496 -43.3475 -39.6175 -33.0804
29.6276 27.9779 27.3457 26.6145 25.2180
-73.7872 -68.7336 -66.5668 -65.4887 -63.2694
128.8424 125.6470 125.3915 119.0840 107.7118
65.6329 56.9723 52.4340 54.7498 58.3236
19.1875 17.7126 17.0484 16.8944 16.5314
29.6276 27.9779 27.3457 26.6145 25.2180
29.6276 27.9779 27.3457 26.6145 25.2180
68.3279 61.2668 57.7677 58.6415 59.7581
29.6276 27.9779 27.3457 26.6145 25.2180
52.8954 50.5383 49.7783 48.0105 44.7338
5.7423 5.2649 5.0436 5.0258 4.9650
95.8569 88.0607 84.4742 84.0415 82.7980
5.7423 5.2649 5.0436 5.0258 4.9650
63.8956 59.1898 57.1068 56.4324 54.9497
25.1953 25.9009 26.6849 24.4055 20.4096
124.5338 120.4826 119.6323 114.2925 104.5827
-316.0207 -300.8731 -295.6645 -285.9405 -267.7832
8.8906 11.1549 12.6947 10.3061 6.2120
-111.0723 -104.0336 -101.1281 -99.0585 -94.9605
-74.5163 -69.4514 -67.2874 -66.1683 -63.8755
-22.8501 -23.9616 -24.9682 -22.5303 -18.2783
68.3279 61.2668 57.7677 58.6415 59.7581
17.8687 19.6236 20.9659 18.3632 13.8584
153.0625 146.9979 145.2724 139.5627 129.0742
58.4303 55.8843 55.0809 53.0828 49.3864
72.3857 63.7185 59.2676 61.1264 63.8900
5.7423 5.2649 5.0436 5.0258 4.9650
68.3279 61.2668 57.7677 58.6415 59.7581
5.7423 5.2649 5.0436 5.0258 4.9650
-26.9719 -30.4911 -33.0626 -28.4498 -20.4912
-62.6027 -58.3098 -56.4680 -55.5576 -53.6818
128.9661 122.5596 120.2931 116.5015 109.3911
-40.8629 -42.0496 -43.3475 -39.6175 -33.0804
-1790.2233 -1705.9474 -1677.4022 -1621.1113 -1516.2097
145.8687 136.3872 132.4225 129.8914 124.8263
1160.9666 1096.1636 1071.2902 1042.7644 988.2537
-1095.1200 -1052.9888 -1041.4329 -999.5912 -922.8712
3.9422 4.4870 4.8819 4.1838 2.9800
324.8041 309.7024 304.6417 294.2804 274.9965
145.8687 136.3872 132.4225 129.8914 124.8263
145.8687 136.3872 132.4225 129.8914 124.8263
686.0947 653.3473 642.1260 620.9058 581.3010
793.2018 763.6773 755.9286 724.8432 667.9540
912.8182 811.8375 760.9231 777.8242 801.5970
-818.3020 -769.4014 -749.8485 -732.2771 -698.1500
1160.9666 1096.1636 1071.2902 1042.7644 988.2537
145.8687 136.3872 132.4225 129.8914 124.8263
-157.5248 -98.3237 -63.3535 -99.1109 -158.8523
-182.6972 -191.6482 -199.7362 -180.1936 -146.1115
-22.5229 -74.2156 -106.9213 -64.7420 6.8382
546.9762 506.4039 488.3914 482.8456 470.5370
1136.3634 1090.5548 1077.2532 1035.4794 958.6546
1160.9666 1096.1636 1071.2902 1042.7644 988.2537
1064.3439 946.5196 887.1029 906.8731 934.7000
-726.7200 -674.2722 -651.2539 -642.7401 -624.4460
120.8787 125.5650 130.1416 118.1832 97.2795
912.8182 811.8375 760.9231 777.8242 801.5970
773.6964 776.6641 789.0167 733.7230 635.9242
-949.1057 -890.5545 -866.7267 -847.7883 -810.6486
-746.4441 -700.4585 -681.7581 -666.8140 -637.5206
145.8687 136.3872 132.4225 129.8914 124.8263
699.6159 640.5410 613.0013 611.5527 605.3727
1073.3662 1044.1636 1040.4160 989.8999 898.5994
912.8182 811.8375 760.9231 777.8242 801.5970
145.8687 136.3872 132.4225 129.8914 124.8263
120.8787 125.5650 130.1416 118.1832 97.2795
145.8687 136.3872 132.4225 129.8914 124.8263
677.3754 606.5452 571.3359 580.6509 592.8251
-856.5482 -803.6707 -782.1439 -765.0809 -731.6113
-185.6539 -167.7559 -159.0554 -160.4174 -161.7363
767.2660 677.3361 631.3744 649.5512 676.2606
120.8787 125.5650 130.1416 118.1832 97.2795
1160.9666 1096.1636 1071.2902 1042.7644 988.2537
145.8687 136.3872 132.4225 129.8914 124.8263
-940.9521 -884.0673 -861.1734 -841.4831 -803.1129
-850.5081 -790.9585 -765.1677 -753.7633 -729.9129
-182.6972 -191.6482 -199.7362 -180.1936 -146.1115
145.8687 136.3872 132.4225 129.8914 124.8263
-825.3055 -773.9820 -753.0052 -736.8594 -705.1099
1057.1415 1028.3287 1024.6057 974.8936 885.0416
905.5761 799.5920 745.4434 766.7735 798.0887
310.1772 292.2422 285.2073 278.0746 264.3385
145.8687 136.3872 132.4225 129.8914 124.8263
145.8687 136.3872 132.4225 129.8914 124.8263
677.3754 606.5452 571.3359 580.6509 592.8251
145.8687 136.3872 132.4225 129.8914 124.8263
289.1212 277.9371 274.8479 263.8494 243.6761
120.8787 125.5650 130.1416 118.1832 97.2795
843.7619 770.0389 735.2728 735.4726 731.3177
120.8787 125.5650 130.1416 118.1832 97.2795
528.1071 484.9330 465.0339 462.8250 456.2704
-3.3996 14.7750 26.1205 12.0655 -11.7285
1011.6982 974.5513 964.9881 924.9385 851.6989
-2512.1692 -2378.3831 -2328.5962 -2261.8088 -2135.2798
-137.9307 -102.4001 -82.0005 -100.4909 -131.0829
-816.5469 -759.0504 -734.0857 -723.3922 -700.9268
-834.4543 -782.5873 -761.3942 -745.0492 -712.9138
-186.5020 -203.3826 -216.4924 -190.4556 -145.3508
677.3754 606.5452 571.3359 580.6509 592.8251
-84.7166 -51.8881 -32.4604 -52.4692 -85.9170
1298.3098 1240.9520 1222.6078 1178.8278 1097.7417
357.3940 343.7216 339.9986 326.2829 301.1425
912.8182 811.8375 760.9231 777.8242 801.5970
120.8787 125.5650 130.1416 118.1832 97.2795
677.3754 606.5452 571.3359 580.6509 592.8251
120.8787 125.5650 130.1416 118.1832 97.2795
91.1861 29.2685 -8.3039 34.1299 105.5360
-727.1046 -682.2986 -664.0754 -649.5277 -621.0090
1160.9666 1096.1636 1071.2902 1042.7644 988.2537
-182.6972 -191.6482 -199.7362 -180.1936 -146.1115
-487.6556 -464.2214 -456.1464 -441.1882 -413.2491
51.1278 47.6316 46.1335 45.3823 43.8373
296.3116 279.3328 272.7090 265.7738 252.4461
-283.3996 -271.7996 -268.3721 -258.0922 -239.1669
11.4446 10.7066 10.3992 10.1960 9.7907
102.7577 97.5628 95.7002 92.7502 87.2051
51.1278 47.6316 46.1335 45.3823 43.8373
51.1278 47.6316 46.1335 45.3823 43.8373
160.0818 152.1410 149.3346 144.6194 135.7785
187.0349 180.0141 178.1500 170.8665 157.5308
250.8096 223.9939 210.5875 214.5000 219.7930
-213.8882 -201.4318 -196.5250 -191.6765 -182.3230
296.3116 279.3328 272.7090 265.7738 252.4461
51.1278 47.6316 46.1335 45.3823 43.8373
-47.5067 -31.8223 -22.6358 -31.7140 -46.8412
-34.1064 -36.5492 -38.5428 -34.2878 -26.8974
-6.5174 -19.6446 -27.9609 -17.1950 1.0793
146.0163 136.0884 131.8460 129.6556 125.1671
283.1954 271.7698 268.4489 258.0458 238.9129
296.3116 279.3328 272.7090 265.7738 252.4461
293.4754 262.2122 246.5968 251.0852 257.1265
-201.4890 -187.5729 -181.5830 -178.7307 -172.8254
32.2924 33.4324 34.5849 31.4782 26.0429
250.8096 223.9939 210.5875 214.5000 219.7930
180.5224 182.3778 185.9888 172.1732 147.8055
-249.7897 -234.7186 -228.6597 -223.4092 -213.1837
-194.8784 -183.2025 -178.5270 -174.3662 -166.2791
51.1278 47.6316 46.1335 45.3823 43.8373
191.2085 176.0410 169.1272 167.9625 164.9709
261.9834 255.0559 254.2667 241.7795 219.2285
250.8096 223.9939 210.5875 214.5000 219.7930
51.1278 47.6316 46.1335 45.3823 43.8373
32.2924 33.4324 34.5849 31.4782 26.0429
51.1278 47.6316 46.1335 45.3823 43.8373
187.0689 168.4305 159.2851 161.1323 163.2657
-224.4760 -210.9682 -205.5459 -200.7992 -191.5619
-33.0625 -28.2453 -25.6744 -27.1982 -29.6037
210.1232 186.5915 174.6917 178.8076 184.6618
32.2924 33.4324 34.5849 31.4782 26.0429
296.3116 279.3328 272.7090 265.7738 252.4461
51.1278 47.6316 46.1335 45.3823 43.8373
-247.4539 -232.8213 -227.0056 -221.5703 -211.0440
-235.9138 -220.0010 -213.2264 -209.5874 -202.1660
-34.1064 -36.5492 -38.5428 -34.2878 -26.8974
51.1278 47.6316 46.1335 45.3823 43.8373
-216.1140 -203.0196 -197.7430 -193.2437 -184.4701
257.4339 250.6144 249.8313 237.5706 215.4276
249.5728 221.6182 207.4812 212.3737 219.3336
83.2104 78.1652 76.1315 74.4017 71.0282
51.1278 47.6316 46.1335 45.3823 43.8373
51.1278 47.6316 46.1335 45.3823 43.8373
187.0689 168.4305 159.2851 161.1323 163.2657
51.1278 47.6316 46.1335 45.3823 43.8373
92.8551 88.7706 87.4697 84.3247 78.5018
32.2924 33.4324 34.5849 31.4782 26.0429
232.1657 212.9076 203.9853 203.2328 200.7215
32.2924 33.4324 34.5849 31.4782 26.0429
142.8057 131.9729 127.1197 125.8605 122.9667
6.8647 11.1740 13.9682 10.1105 3.5383
252.0484 242.8752 240.5437 230.5020 212.1472
-676.0086 -639.6870 -626.0886 -608.3687 -574.7476
-26.3033 -17.5614 -12.4388 -17.5106 -25.9632
-226.2152 -210.9236 -204.4068 -200.9433 -193.8709
-218.3329 -205.0890 -199.7488 -195.2151 -186.3714
-52.8982 -56.4539 -59.4000 -52.9838 -41.8316
187.0689 168.4305 159.2851 161.1323 163.2657
-12.3729 -4.4732 0.3104 -5.0529 -14.0735
328.1489 313.4096 308.6213 297.7462 277.5741
110.9083 106.1678 104.7007 100.8355 93.6964
250.8096 223.9939 210.5875 214.5000 219.7930
32.2924 33.4324 34.5849 31.4782 26.0429
187.0689 168.4305 159.2851 161.1323 163.2657
32.2924 33.4324 34.5849 31.4782 26.0429
24.1719 8.3201 -1.2878 9.5193 27.7000
-189.0046 -177.6769 -173.1400 -169.1075 -161.2691
296.3116 279.3328 272.7090 265.7738 252.4461
-34.1064 -36.5492 -38.5428 -34.2878 -26.8974
-133.2571 -126.4777 -124.0356 -120.2435 -113.1093
18.9616 17.5218 16.8764 16.7104 16.3282
74.7824 70.3631 68.6073 66.9625 63.7777
-75.9406 -72.3522 -71.1328 -68.7556 -64.3237
7.8120 7.1125 6.7800 6.7952 6.7793
34.3649 32.3434 31.5423 30.7792 29.3034
18.9616 17.5218 16.8764 16.7104 16.3282
18.9616 17.5218 16.8764 16.7104 16.3282
35.3085 33.4387 32.7456 31.7986 30.0062
42.5398 40.8268 40.3299 38.7647 35.8864
69.5482 62.8319 59.5653 60.0846 60.5940
-54.0933 -51.2075 -50.1323 -48.6981 -45.9804
74.7824 70.3631 68.6073 66.9625 63.7777
18.9616 17.5218 16.8764 16.7104 16.3282
-18.2568 -14.3825 -12.2017 -13.9977 -16.9434
-7.4054 -7.7132 -8.0066 -7.2577 -5.9494
-1.1931 -4.0722 -5.8931 -3.5480 0.4315
36.7067 34.6715 33.8936 32.9810 31.2393
69.8675 66.9547 66.0765 63.5838 58.9887
74.7824 70.3631 68.6073 66.9625 63.7777
82.2444 74.4178 70.6276 71.1506 71.5987
-61.7403 -57.9463 -56.4055 -55.1620 -52.7263
5.9709 6.4407 6.8161 6.0381 4.6882
69.5482 62.8319 59.5653 60.0846 60.5940
42.8045 43.1508 43.9484 40.7461 35.0929
-64.0906 -60.5146 -59.1423 -57.5665 -54.5554
-49.2248 -46.5483 -45.5383 -44.2729 -41.8668
18.9616 17.5218 16.8764 16.7104 16.3282
50.0103 46.5472 45.0548 44.3540 42.9004
64.4476 62.5214 62.1881 59.2908 54.0391
69.5482 62.8319 59.5653 60.0846 60.5940
18.9616 17.5218 16.8764 16.7104 16.3282
5.9709 6.4407 6.8161 6.0381 4.6882
18.9616 17.5218 16.8764 16.7104 16.3282
48.9459 44.5326 42.4302 42.5492 42.4902
-57.1391 -53.9942 -52.7979 -51.3590 -48.6168
-5.6453 -4.2250 -3.4114 -4.1415 -5.3483
59.8318 54.0043 51.1631 51.6488 52.1529
5.9709 6.4407 6.8161 6.0381 4.6882
74.7824 70.3631 68.6073 66.9625 63.7777
18.9616 17.5218 16.8764 16.7104 16.3282
-63.4117 -59.9404 -58.6246 -57.0129 -53.9446
-71.2014 -66.8442 -65.0787 -63.6303 -60.7971
-7.4054 -7.7132 -8.0066 -7.2577 -5.9494
18.9616 17.5218 16.8764 16.7104 16.3282
-54.9011 -51.8671 -50.7100 -49.3371 -46.7186
62.9533 61.0745 60.7506 57.9184 52.7847
70.0473 63.1427 59.7649 60.3981 61.0977
18.3123 17.0836 16.5618 16.2742 15.6895
18.9616 17.5218 16.8764 16.7104 16.3282
18.9616 17.5218 16.8764 16.7104 16.3282
48.9459 44.5326 42.4302 42.5492 42.4902
18.9616 17.5218 16.8764 16.7104 16.3282
31.6584 29.9428 29.2969 28.4785 26.9233
5.9709 6.4407 6.8161 6.0381 4.6882
61.3215 56.7800 54.7650 54.1377 52.7485
5.9709 6.4407 6.8161 6.0381 4.6882
36.7121 34.3496 33.3667 32.7109 31.4044
6.7278 7.3388 7.8129 6.8721 5.2423
62.5486 60.1801 59.5438 57.1242 52.6919
-186.4439 -176.2038 -172.3139 -167.6017 -158.6253
-0.4082 1.1678 2.1501 0.9391 -1.1104
-68.4615 -64.3003 -62.6205 -61.2055 -58.4437
-55.5386 -52.4544 -51.2743 -49.8973 -47.2686
-19.0290 -19.1640 -19.5066 -18.0980 -15.6101
48.9459 44.5326 42.4302 42.5492 42.4902
3.7125 4.9554 5.7848 4.5536 2.4479
82.5974 78.7047 77.3849 74.7912 69.9571
37.3855 35.4277 34.7076 33.6876 31.7605
69.5482 62.8319 59.5653 60.0846 60.5940
5.9709 6.4407 6.8161 6.0381 4.6882
48.9459 44.5326 42.4302 42.5492 42.4902
5.9709 6.4407 6.8161 6.0381 4.6882
6.8219 3.2696 1.1355 3.4612 7.3650
-47.3361 -44.7681 -43.8005 -42.5790 -40.2576
74.7824 70.3631 68.6073 66.9625 63.7777
-7.4054 -7.7132 -8.0066 -7.2577 -5.9494
-133.9998 -126.9086 -124.2811 -120.6833 -113.8743
24.8062 22.8787 22.0070 21.8243 21.3825
65.6138 61.5219 59.8470 58.5724 56.0637
-74.0409 -70.0787 -68.5993 -66.6460 -62.9423
14.7620 13.4866 12.8873 12.8795 12.7877
41.9216 39.2622 38.1639 37.3849 35.8420
24.8062 22.8787 22.0070 21.8243 21.3825
24.8062 22.8787 22.0070 21.8243 21.3825
25.9971 24.4431 23.8217 23.2638 22.1802
33.3283 31.8352 31.3513 30.2438 28.1898
64.1804 58.1058 55.1687 55.5509 55.8567
-44.9882 -42.7737 -41.9957 -40.6571 -38.1497
65.6138 61.5219 59.8470 58.5724 56.0637
24.8062 22.8787 22.0070 21.8243 21.3825
-18.4527 -15.0665 -13.1943 -14.5932 -16.8650
-7.2512 -7.1456 -7.1778 -6.7644 -6.0255
-5.3121 -7.5429 -9.0131 -6.8958 -3.2804
39.1414 37.2068 36.5251 35.3666 33.1956
61.5313 58.8035 57.9281 55.8607 52.0304
65.6138 61.5219 59.8470 58.5724 56.0637
76.5723 69.4725 66.0610 66.4008 66.5689
-62.8046 -59.1474 -57.7069 -56.2829 -53.5358
1.6201 2.3415 2.8157 2.1377 0.9802
64.1804 58.1058 55.1687 55.5509 55.8567
35.6116 35.8606 36.4996 33.8662 29.2150
-54.3372 -51.4853 -50.4348 -48.9572 -46.1646
-40.6978 -38.6756 -37.9600 -36.7639 -34.5208
24.8062 22.8787 22.0070 21.8243 21.3825
52.0522 48.7509 47.3876 46.4198 44.5030
55.3003 53.4508 53.0416 50.7101 46.4656
64.1804 58.1058 55.1687 55.5509 55.8567
24.8062 22.8787 22.0070 21.8243 21.3825
1.6201 2.3415 2.8157 2.1377 0.9802
24.8062 22.8787 22.0070 21.8243 21.3825
48.5254 44.4636 42.5758 42.4473 41.9711
-47.9440 -45.4968 -44.6131 -43.2551 -40.6991
-2.6414 -1.1343 -0.2255 -1.2295 -2.9164
54.8109 49.6103 47.0939 47.4304 47.7086
1.6201 2.3415 2.8157 2.1377 0.9802
65.6138 61.5219 59.8470 58.5724 56.0637
24.8062 22.8787 22.0070 21.8243 21.3825
-53.9511 -51.1767 -50.1694 -48.6574 -45.8085
-71.7267 -67.5222 -65.8596 -64.2551 -61.1549
-7.2512 -7.1456 -7.1778 -6.7644 -6.0255
24.8062 22.8787 22.0070 21.8243 21.3825
-45.6385 -43.3080 -42.4661 -41.1743 -38.7425
53.6704 51.8804 51.4862 49.2196 45.0938
64.8756 58.6766 55.6710 56.1034 56.4906
14.8786 13.7750 13.2850 13.1342 12.7993
24.8062 22.8787 22.0070 21.8243 21.3825
24.8062 22.8787 22.0070 21.8243 21.3825
48.5254 44.4636 42.5758 42.4473 41.9711
24.8062 22.8787 22.0070 21.8243 21.3825
39.7271 37.3422 36.3861 35.5416 33.8993
1.6201 2.3415 2.8157 2.1377 0.9802
63.5332 59.1544 57.2714 56.3648 54.4906
1.6201 2.3415 2.8157 2.1377 0.9802
38.8545 36.6077 35.7263 34.8330 33.1126
15.1354 15.0228 15.1575 14.2100 12.5240
55.9430 53.6660 52.9975 50.9581 47.2052
-183.0016 -172.6921 -168.7120 -164.2900 -155.8236
9.0760 9.7719 10.3311 9.1628 7.1351
-69.1375 -65.1347 -63.5635 -61.9776 -58.9227
-46.0924 -43.7161 -42.8517 -41.5647 -39.1388
-15.9354 -15.8765 -16.0556 -15.0112 -13.1568
48.5254 44.4636 42.5758 42.4473 41.9711
13.1553 13.4629 13.8342 12.6918 10.6864
73.3721 69.6839 68.3672 66.2442 62.2567
44.6738 42.0643 41.0345 40.0279 38.0847
64.1804 58.1058 55.1687 55.5509 55.8567
1.6201 2.3415 2.8157 2.1377 0.9802
48.5254 44.4636 42.5758 42.4473 41.9711
1.6201 2.3415 2.8157 2.1377 0.9802
2.5422 -0.3261 -2.0894 -0.0085 3.5033
-38.3303 -36.4390 -35.7733 -34.6364 -32.5061
65.6138 61.5219 59.8470 58.5724 56.0637
-7.2512 -7.1456 -7.1778 -6.7644 -6.0255
-199.4576 -189.5106 -185.9809 -180.1474 -169.2023
25.6700 23.8366 23.0355 22.7197 22.0480
114.7267 108.0306 105.3895 102.8003 97.8028
-115.8156 -110.6389 -108.9648 -105.1067 -97.9535
9.7190 8.9732 8.6375 8.5586 8.3730
48.0979 45.4395 44.4255 43.2230 40.9296
25.6700 23.8366 23.0355 22.7197 22.0480
25.6700 23.8366 23.0355 22.7197 22.0480
57.8591 54.8904 53.8142 52.1875 49.1235
69.2619 66.5265 65.7512 63.1606 58.4027
100.9697 90.6717 85.5863 86.7704 88.2389
-81.6006 -77.0050 -75.2312 -73.2583 -69.4812
114.7267 108.0306 105.3895 102.8003 97.8028
25.6700 23.8366 23.0355 22.7197 22.0480
-23.7480 -17.8695 -14.5070 -17.5027 -22.4516
-14.2776 -14.8651 -15.4269 -13.9878 -11.4734
-3.7706 -8.4222 -11.3889 -7.4740 -0.8213
57.8951 54.2450 52.7423 51.6488 49.4879
109.4555 104.8890 103.5111 99.6086 92.4142
114.7267 108.0306 105.3895 102.8003 97.8028
118.9915 106.9774 101.0609 102.3604 103.9285
-88.5470 -82.8743 -80.5196 -78.9179 -75.7329
9.9039 10.5346 11.0641 9.8904 7.8492
100.9697 90.6717 85.5863 86.7704 88.2389
69.6020 70.0071 71.2049 66.1221 57.1402
-96.1206 -90.4998 -88.2803 -86.1194 -81.9466
-74.2897 -70.0056 -68.3278 -66.6105 -63.3054
25.6700 23.8366 23.0355 22.7197 22.0480
76.4981 70.7757 68.2263 67.4886 65.8313
101.6093 98.6223 98.1281 93.5210 85.1744
100.9697 90.6717 85.5863 86.7704 88.2389
25.6700 23.8366 23.0355 22.7197 22.0480
9.9039 10.5346 11.0641 9.8904 7.8492
25.6700 23.8366 23.0355 22.7197 22.0480
73.6613 66.6497 63.2538 63.7237 64.1275
-85.9827 -80.9912 -79.0286 -77.0670 -73.2858
-11.7483 -9.7287 -8.6222 -9.4057 -10.6705
85.9920 76.9586 72.4628 73.6780 75.2788
9.9039 10.5346 11.0641 9.8904 7.8492
114.7267 108.0306 105.3895 102.8003 97.8028
25.6700 23.8366 23.0355 22.7197 22.0480
-95.2692 -89.8073 -87.6758 -85.4483 -81.1672
-102.3635 -95.8712 -93.1902 -91.2871 -87.5177
-14.2776 -14.8651 -15.4269 -13.9878 -11.4734
25.6700 23.8366 23.0355 22.7197 22.0480
-82.5380 -77.7198 -75.8191 -73.9570 -70.3628
99.4916 96.5693 96.0869 91.5739 83.3981
101.1727 90.4995 85.1817 86.6469 88.5905
28.6599 26.7855 25.9993 25.5110 24.5312
25.6700 23.8366 23.0355 22.7197 22.0480
25.6700 23.8366 23.0355 22.7197 22.0480
73.6613 66.6497 63.2538 63.7237 64.1275
25.6700 23.8366 23.0355 22.7197 22.0480
44.2776 42.0531 41.2593 39.9772 37.5692
9.9039 10.5346 11.0641 9.8904 7.8492
93.1265 85.7877 82.4507 81.8454 80.3240
9.9039 10.5346 11.0641 9.8904 7.8492
56.9625 52.9221 51.1621 50.4393 48.9113
8.9713 10.1090 10.9438 9.4353 6.8317
98.0279 94.3031 93.2977 89.5159 82.5866
-277.4138 -262.2746 -256.5476 -249.4598 -235.9743
-2.8996 -0.1870 1.4739 -0.4601 -3.7212
-98.4211 -92.1998 -89.6350 -87.7888 -84.1368
-83.4634 -78.5769 -76.6461 -74.7743 -71.1586
-24.6442 -25.4742 -26.3286 -23.9892 -19.8945
73.6613 66.6497 63.2538 63.7237 64.1275
3.1900 5.4644 6.9332 4.9269 1.5108
127.7273 121.7868 119.7956 115.7225 108.1416
52.1583 49.6200 48.7363 47.1615 44.2156
100.9697 90.6717 85.5863 86.7704 88.2389
9.9039 10.5346 11.0641 9.8904 7.8492
73.6613 66.6497 63.2538 63.7237 64.1275
9.9039 10.5346 11.0641 9.8904 7.8492
8.4031 2.7079 -0.7477 3.1542 9.7202
-71.4845 -67.3622 -65.7478 -64.0953 -60.9150
114.7267 108.0306 105.3895 102.8003 97.8028
-14.2776 -14.8651 -15.4269 -13.9878 -11.4734
-70.2571 -66.3885 -64.9165 -63.1486 -59.7791
16.2870 14.9508 14.3342 14.2697 14.0738
29.6708 27.7840 27.0037 26.4560 25.3701
-37.5432 -35.2310 -34.2909 -33.5387 -32.0644
11.0185 9.9937 9.5008 9.5522 9.5806
26.1808 24.3829 23.6111 23.2323 22.4512
16.2870 14.9508 14.3342 14.2697 14.0738
16.2870 14.9508 14.3342 14.2697 14.0738
7.6797 7.1426 6.9101 6.8067 6.5905
11.7361 11.1529 10.9465 10.6016 9.9548
32.8184 30.1498 28.9223 28.7737 28.3472
-20.0332 -19.3036 -19.1180 -18.3202 -16.8620
29.6708 27.7840 27.0037 26.4560 25.3701
16.2870 14.9508 14.3342 14.2697 14.0738
-11.0875 -9.6588 -8.9136 -9.2778 -9.8359
-2.6380 -2.3209 -2.1579 -2.2266 -2.3290
-3.6250 -4.2766 -4.7342 -3.9738 -2.6663
18.7625 18.1911 18.0874 17.2523 15.7375
27.2092 25.9990 25.6095 24.6983 23.0098
29.6708 27.7840 27.0037 26.4560 25.3701
39.6557 36.5413 35.1271 34.8609 34.1988
-35.8758 -34.0351 -33.3680 -32.3592 -30.4591
-1.1029 -0.6001 -0.2999 -0.6197 -1.1555
32.8184 30.1498 28.9223 28.7737 28.3472
14.9439 15.0009 15.2393 14.1716 12.2830
-24.8672 -23.8349 -23.5251 -22.6344 -20.9930
-18.0415 -17.4037 -17.2487 -16.5151 -15.1761
16.2870 14.9508 14.3342 14.2697 14.0738
25.8046 24.5430 24.1022 23.3276 21.8779
24.3679 23.4469 23.2002 22.2561 20.5270
32.8184 30.1498 28.9223 28.7737 28.3472
16.2870 14.9508 14.3342 14.2697 14.0738
-1.1029 -0.6001 -0.2999 -0.6197 -1.1555
16.2870 14.9508 14.3342 14.2697 14.0738
23.4959 21.8677 21.1658 20.8375 20.1561
-21.5733 -20.7458 -20.5197 -19.6935 -18.1789
1.5183 2.3653 2.9168 2.1470 0.8347
28.8260 26.5963 25.5896 25.3693 24.8425
-1.1029 -0.6001 -0.2999 -0.6197 -1.1555
29.6708 27.7840 27.0037 26.4560 25.3701
16.2870 14.9508 14.3342 14.2697 14.0738
-24.6870 -23.6824 -23.3874 -22.4874 -20.8310
-40.5358 -38.4067 -37.6220 -36.5210 -34.4398
-2.6380 -2.3209 -2.1579 -2.2266 -2.3290
16.2870 14.9508 14.3342 14.2697 14.0738
-20.3832 -19.6148 -19.4095 -18.6184 -17.1695
23.3654 22.4881 22.2551 21.3454 19.6797
33.5593 30.9104 29.7052 29.4904 28.9478
5.2019 4.7481 4.5343 4.5349 4.5083
16.2870 14.9508 14.3342 14.2697 14.0738
16.2870 14.9508 14.3342 14.2697 14.0738
23.4959 21.8677 21.1658 20.8375 20.1561
16.2870 14.9508 14.3342 14.2697 14.0738
25.1305 23.4699 22.7699 22.3551 21.5186
-1.1029 -0.6001 -0.2999 -0.6197 -1.1555
31.8291 30.0369 29.3453 28.5754 27.1016
-1.1029 -0.6001 -0.2999 -0.6197 -1.1555
19.0040 18.2255 17.9953 17.3064 16.0381
11.7950 11.3085 11.1636 10.7386 9.9558
25.1789 24.1417 23.8331 22.9249 21.2521
-95.5803 -90.1468 -88.0373 -85.7662 -81.4095
10.0472 9.8056 9.7904 9.2926 8.3957
-39.1087 -37.1000 -36.3714 -35.2734 -33.2050
-20.6325 -19.8358 -19.6162 -18.8302 -17.3888
-11.0587 -10.5148 -10.3238 -9.9945 -9.3775
23.4959 21.8677 21.1658 20.8375 20.1561
12.3727 11.8569 11.7013 11.2599 10.4463
33.4759 31.7341 31.0963 30.1741 28.4335
28.0493 26.2427 25.4908 24.9910 23.9948
32.8184 30.1498 28.9223 28.7737 28.3472
-1.1029 -0.6001 -0.2999 -0.6197 -1.1555
23.4959 21.8677 21.1658 20.8375 20.1561
-1.1029 -0.6001 -0.2999 -0.6197 -1.1555
0.1753 -0.7543 -1.3347 -0.6158 0.6011
-16.5591 -15.9997 -15.8737 -15.1799 -13.9164
29.6708 27.7840 27.0037 26.4560 25.3701
-2.6380 -2.3209 -2.1579 -2.2266 -2.3290
-94.2273 -88.1233 -85.5752 -83.9238 -80.6243
25.2585 23.0121 21.9467 21.9836 21.9118
38.0659 35.5238 34.4466 33.8394 32.6080
-55.7163 -51.8467 -50.1768 -49.4050 -47.8007
20.0703 18.1164 17.1640 17.3261 17.4940
38.2664 35.2402 33.8623 33.6219 33.0109
25.2585 23.0121 21.9467 21.9836 21.9118
25.2585 23.0121 21.9467 21.9836 21.9118
12.7352 11.8770 11.5119 11.3148 10.9130
18.3350 17.2716 16.8538 16.4347 15.6270
37.5381 34.7002 33.4305 33.0919 32.3184
-15.9281 -15.6490 -15.6901 -14.8192 -13.2588
38.0659 35.5238 34.4466 33.8394 32.6080
25.2585 23.0121 21.9467 21.9836 21.9118
-14.6944 -12.9492 -12.0546 -12.4207 -12.9628
-12.9857 -11.8310 -11.2833 -11.3022 -11.2651
-6.2406 -6.3166 -6.4489 -5.9620 -5.1037
28.2732 27.0007 26.5866 25.6516 23.9170
36.8005 34.8320 34.0972 33.1257 31.2837
38.0659 35.5238 34.4466 33.8394 32.6080
44.9160 41.6590 40.2267 39.7126 38.6023
-42.4913 -39.9605 -38.9505 -38.0314 -36.2481
-10.7641 -9.4510 -8.7739 -9.0694 -9.5127
37.5381 34.7002 33.4305 33.0919 32.3184
21.6832 21.2017 21.1940 20.0883 18.0995
-21.1361 -20.5143 -20.4111 -19.4532 -17.7177
-13.8722 -13.6968 -13.7750 -12.9633 -11.5143
25.2585 23.0121 21.9467 21.9836 21.9118
36.1850 34.1472 33.3606 32.4857 30.8107
33.5930 31.9274 31.3391 30.3489 28.4926
37.5381 34.7002 33.4305 33.0919 32.3184
25.2585 23.0121 21.9467 21.9836 21.9118
-10.7641 -9.4510 -8.7739 -9.0694 -9.5127
25.2585 23.0121 21.9467 21.9836 21.9118
31.5218 29.3275 28.3796 27.9470 27.0460
-17.6298 -17.2352 -17.2269 -16.3303 -14.7175
-9.2760 -7.6165 -6.7021 -7.3718 -8.4569
32.0174 29.8394 28.9085 28.4290 27.4463
-10.7641 -9.4510 -8.7739 -9.0694 -9.5127
38.0659 35.5238 34.4466 33.8394 32.6080
25.2585 23.0121 21.9467 21.9836 21.9118
-21.3099 -20.6798 -20.5739 -19.6105 -17.8649
-47.6765 -44.8113 -43.6620 -42.6509 -40.6840
-12.9857 -11.8310 -11.2833 -11.3022 -11.2651
25.2585 23.0121 21.9467 21.9836 21.9118
-15.8936 -15.6019 -15.6345 -14.7759 -13.2367
32.2614 30.6757 30.1193 29.1576 27.3564
37.3305 34.6749 33.5167 33.0490 32.0578
4.7299 4.3828 4.2295 4.1785 4.0671
25.2585 23.0121 21.9467 21.9836 21.9118
25.2585 23.0121 21.9467 21.9836 21.9118
31.5218 29.3275 28.3796 27.9470 27.0460
25.2585 23.0121 21.9467 21.9836 21.9118
37.3005 34.4049 33.0957 32.8189 32.1512
-10.7641 -9.4510 -8.7739 -9.0694 -9.5127
43.9233 41.2233 40.1266 39.2426 37.5110
-10.7641 -9.4510 -8.7739 -9.0694 -9.5127
28.0554 26.5961 26.0619 25.2887 23.8293
21.7920 20.2807 19.6289 19.3254 18.6950
34.5995 32.7924 32.1289 31.1812 29.3913
-125.8017 -117.6812 -114.2974 -112.0699 -107.6262
18.1188 16.9853 16.5205 16.1713 15.4834
-45.9504 -43.2244 -42.1389 -41.1366 -39.1937
-16.2083 -15.8906 -15.9112 -15.0515 -13.5087
-6.6428 -6.3002 -6.1756 -5.9902 -5.6407
31.5218 29.3275 28.3796 27.9470 27.0460
22.1037 20.5345 19.8507 19.5713 18.9802
44.1972 41.5753 40.5314 39.5671 37.6982
39.9135 36.8986 35.5502 35.1882 34.3623
37.5381 34.7002 33.4305 33.0919 32.3184
-10.7641 -9.4510 -8.7739 -9.0694 -9.5127
31.5218 29.3275 28.3796 27.9470 27.0460
-10.7641 -9.4510 -8.7739 -9.0694 -9.5127
-1.1963 -1.6485 -1.9482 -1.5108 -0.7634
-11.7056 -11.6675 -11.8024 -11.0311 -9.6619
38.0659 35.5238 34.4466 33.8394 32.6080
-12.9857 -11.8310 -11.2833 -11.3022 -11.2651
-175.3498 -166.3672 -163.1151 -158.1736 -148.8681
25.4176 23.4988 22.6409 22.4094 21.8820
96.1301 90.4361 88.1708 86.0669 81.9903
-100.9757 -96.1570 -94.5060 -91.3823 -85.5523
11.8623 10.8545 10.3838 10.3640 10.2673
45.8347 43.1078 42.0202 41.0265 39.0988
25.4176 23.4988 22.6409 22.4094 21.8820
25.4176 23.4988 22.6409 22.4094 21.8820
46.2764 43.8411 42.9423 41.6890 39.3194
56.2035 53.9233 53.2563 51.2017 47.4213
85.8096 77.2118 72.9865 73.8718 74.9147
-66.9783 -63.3657 -62.0097 -60.2649 -56.9523
96.1301 90.4361 88.1708 86.0669 81.9903
25.4176 23.4988 22.6409 22.4094 21.8820
-21.8580 -16.9122 -14.1086 -16.5005 -20.4365
-12.8389 -13.0687 -13.3868 -12.3273 -10.4640
-5.2855 -8.9150 -11.2616 -8.0465 -2.5713
51.3133 48.2718 47.0613 45.9399 43.7667
91.6879 87.7930 86.5951 83.3809 77.4471
96.1301 90.4361 88.1708 86.0669 81.9903
101.3130 91.2834 86.3710 87.3206 88.3898
-78.4685 -73.5207 -71.4836 -70.0020 -67.0739
6.0792 6.8358 7.3925 6.3816 4.6365
85.8096 77.2118 72.9865 73.8718 74.9147
57.2060 57.5011 58.4618 54.3140 46.9821
-79.4183 -74.9337 -73.1998 -71.2890 -67.6288
-60.8579 -57.5082 -56.2339 -54.7015 -51.7811
25.4176 23.4988 22.6409 22.4094 21.8820
67.4992 62.6739 60.5649 59.7378 57.9771
84.4840 81.8971 81.4215 77.6720 70.8698
85.8096 77.2118 72.9865 73.8718 74.9147
25.4176 23.4988 22.6409 22.4094 21.8820
6.0792 6.8358 7.3925 6.3816 4.6365
25.4176 23.4988 22.6409 22.4094 21.8820
64.1322 58.2592 55.4478 55.6748 55.7180
-70.7966 -66.8497 -65.3359 -63.5926 -60.2620
-9.8000 -7.8997 -6.8415 -7.6646 -9.0068
72.7291 65.2556 61.5577 62.4544 63.5864
6.0792 6.8358 7.3925 6.3816 4.6365
96.1301 90.4361 88.1708 86.0669 81.9903
25.4176 23.4988 22.6409 22.4094 21.8820
-78.8059 -74.4433 -72.7776 -70.8128 -67.0644
-90.3034 -84.6468 -82.3259 -80.5914 -77.1719
-12.8389 -13.0687 -13.3868 -12.3273 -10.4640
25.4176 23.4988 22.6409 22.4094 21.8820
-67.7551 -63.9631 -62.5052 -60.8483 -57.6803
82.5374 80.0161 79.5551 75.8874 69.2340
85.8826 77.0224 72.6337 73.7202 75.1036
23.1799 21.6495 21.0046 20.6211 19.8477
25.4176 23.4988 22.6409 22.4094 21.8820
25.4176 23.4988 22.6409 22.4094 21.8820
64.1322 58.2592 55.4478 55.6748 55.7180
25.4176 23.4988 22.6409 22.4094 21.8820
42.6904 40.3301 39.4296 38.3629 36.3284
6.0792 6.8358 7.3925 6.3816 4.6365
82.1049 75.8753 73.0841 72.3613 70.6993
6.0792 6.8358 7.3925 6.3816 4.6365
50.5017 47.1112 45.6710 44.8794 43.2695
11.7871 12.3508 12.8641 11.6140 9.4334
82.4995 79.2881 78.3940 75.2714 69.5418
-242.2127 -228.7761 -223.6390 -217.6222 -206.1387
1.8245 3.6806 4.8687 3.2847 0.5913
-86.9257 -81.5102 -79.2948 -77.6018 -74.2708
-68.4865 -64.6363 -63.1518 -61.4906 -58.3114
-20.4773 -20.9939 -21.5954 -19.7876 -16.6157
64.1322 58.2592 55.4478 55.6748 55.7180
7.2818 8.7115 9.7064 8.0840 5.2965
107.3973 102.2949 100.5533 97.2130 90.9818
49.2292 46.6008 45.6209 44.3174 41.8469
85.8096 77.2118 72.9865 73.8718 74.9147
6.0792 6.8358 7.3925 6.3816 4.6365
64.1322 58.2592 55.4478 55.6748 55.7180
6.0792 6.8358 7.3925 6.3816 4.6365
5.2425 0.7244 -2.0364 1.1566 6.5383
-58.1942 -54.9987 -53.7850 -52.3136 -49.5109
96.1301 90.4361 88.1708 86.0669 81.9903
-12.8389 -13.0687 -13.3868 -12.3273 -10.4640
-88.9456 -83.7489 -81.6979 -79.6948 -75.8273
21.9692 20.1943 19.3798 19.2713 18.9703
35.6727 33.2302 32.1830 31.6613 30.5875
-45.9966 -43.0153 -41.7705 -40.9656 -39.3571
15.4506 14.0798 13.4301 13.4501 13.4018
34.4275 32.0428 31.0150 30.5331 29.5333
21.9692 20.1943 19.3798 19.2713 18.9703
21.9692 20.1943 19.3798 19.2713 18.9703
7.7168 7.0414 6.7228 6.7255 6.6890
12.0344 11.3375 11.0639 10.7880 10.2564
42.1513 38.6258 36.9876 36.8739 36.4566
-23.3878 -22.4643 -22.2026 -21.3277 -19.7209
35.6727 33.2302 32.1830 31.6613 30.5875
21.9692 20.1943 19.3798 19.2713 18.9703
-15.6386 -13.6692 -12.6468 -13.1246 -13.8508
-2.3805 -2.0226 -1.8306 -1.9490 -2.1369
-3.5920 -4.4591 -5.0513 -4.1238 -2.5332
25.4909 24.4896 24.2076 23.2499 21.4916
31.2071 29.6650 29.1216 28.1978 26.4664
35.6727 33.2302 32.1830 31.6613 30.5875
50.5571 46.4514 44.5637 44.3306 43.6665
-43.3787 -41.0167 -40.1244 -39.0120 -36.8963
-2.4740 -1.7530 -1.3347 -1.7321 -2.3923
42.1513 38.6258 36.9876 36.8739 36.4566
13.1597 13.4302 13.7782 12.6648 10.7083
-29.4138 -28.0951 -27.6675 -26.6907 -24.8793
-20.9475 -20.1410 -19.9195 -19.1197 -17.6531
21.9692 20.1943 19.3798 19.2713 18.9703
35.0027 33.0918 32.3687 31.4750 29.7744
26.0007 24.9603 24.6609 23.6989 21.9308
42.1513 38.6258 36.9876 36.8739 36.4566
21.9692 20.1943 19.3798 19.2713 18.9703
-2.4740 -1.7530 -1.3347 -1.7321 -2.3923
21.9692 20.1943 19.3798 19.2713 18.9703
32.8427 30.4692 29.4270 29.0447 28.2222
-25.3714 -24.3130 -23.9937 -23.0890 -21.4212
0.7501 1.8815 2.6008 1.6600 0.0622
35.8738 32.9929 31.6737 31.4829 30.9685
-2.4740 -1.7530 -1.3347 -1.7321 -2.3923
35.6727 33.2302 32.1830 31.6613 30.5875
21.9692 20.1943 19.3798 19.2713 18.9703
-29.2198 -27.9327 -27.5222 -26.5339 -24.7039
-49.2391 -46.5047 -45.4587 -44.2377 -41.9070
-2.3805 -2.0226 -1.8306 -1.9490 -2.1369
21.9692 20.1943 19.3798 19.2713 18.9703
-23.8531 -22.8771 -22.5889 -21.7234 -20.1300
24.8192 23.8290 23.5450 22.6245 20.9328
42.7034 39.2095 37.5988 37.4223 36.8959
7.6101 6.9582 6.6528 6.6444 6.5895
21.9692 20.1943 19.3798 19.2713 18.9703
21.9692 20.1943 19.3798 19.2713 18.9703
32.8427 30.4692 29.4270 29.0447 28.2222
21.9692 20.1943 19.3798 19.2713 18.9703
33.0350 30.8256 29.8889 29.3644 28.3000
-2.4740 -1.7530 -1.3347 -1.7321 -2.3923
43.1318 40.5017 39.4381 38.5533 36.8246
-2.4740 -1.7530 -1.3347 -1.7321 -2.3923
25.9419 24.6966 24.2678 23.4711 21.9831
15.0684 14.4217 14.2207 13.6976 12.7312
28.7719 27.4575 27.0238 26.0877 24.3484
-119.2328 -112.0591 -109.1796 -106.6575 -101.7496
11.9905 11.7504 11.7625 11.1305 9.9959
-47.4322 -44.8498 -43.8745 -42.6578 -40.3439
-24.0647 -23.0588 -22.7548 -21.8982 -20.3189
-9.8214 -9.4225 -9.3056 -8.9469 -8.2870
32.8427 30.4692 29.4270 29.0447 28.2222
14.8718 14.3057 14.1526 13.5796 12.5296
39.1512 36.9364 36.0791 35.1403 33.3413
35.9235 33.5830 32.6032 31.9841 30.7440
42.1513 38.6258 36.9876 36.8739 36.4566
-2.4740 -1.7530 -1.3347 -1.7321 -2.3923
32.8427 30.4692 29.4270 29.0447 28.2222
-2.4740 -1.7530 -1.3347 -1.7321 -2.3923
1.4774 0.2210 -0.5464 0.3402 1.8343
-19.0838 -18.3841 -18.2043 -17.4481 -16.0652
35.6727 33.2302 32.1830 31.6613 30.5875
-2.3805 -2.0226 -1.8306 -1.9490 -2.1369
-186.5249 -177.1094 -173.7373 -168.3714 -158.2871
26.6171 24.5941 23.6871 23.4555 22.9213
103.9791 97.8705 95.4519 93.1365 88.6601
-108.1450 -103.0582 -101.3365 -97.9327 -91.5902
12.1225 11.0624 10.5623 10.5659 10.5074
48.3353 45.4682 44.3266 43.2719 41.2277
26.6171 24.5941 23.6871 23.4555 22.9213
26.6171 24.5941 23.6871 23.4555 22.9213
50.9656 48.3088 47.3347 45.9347 43.2913
61.6675 59.1886 58.4712 56.1987 52.0202
92.6760 83.4282 78.8887 79.8149 80.8905
-72.2945 -68.4356 -66.9972 -65.0823 -61.4529
103.9791 97.8705 95.4519 93.1365 88.6601
26.6171 24.5941 23.6871 23.4555 22.9213
-21.8946 -16.6141 -13.6013 -16.2537 -20.6309
-14.0295 -14.2850 -14.6354 -13.4742 -11.4322
-4.4243 -8.4175 -10.9804 -7.5384 -1.6832
54.7466 51.5491 50.2874 49.0536 46.6718
99.6060 95.4325 94.1674 90.6302 84.1070
103.9791 97.8705 95.4519 93.1365 88.6601
109.6015 98.8062 93.5262 94.5104 95.5942
-83.3050 -78.0559 -75.8956 -74.3198 -71.2063
5.8577 6.6861 7.2848 6.2326 4.4187
92.6760 83.4282 78.8887 79.8149 80.8905
63.3909 63.6884 64.7345 60.1615 52.0762
-85.6347 -80.8420 -78.9993 -76.9053 -72.9014
-65.6857 -62.1086 -60.7573 -59.0731 -55.8699
26.6171 24.5941 23.6871 23.4555 22.9213
71.9032 66.7937 64.5663 63.6612 61.7448
92.2226 89.4370 88.9417 84.8188 77.3427
92.6760 83.4282 78.8887 79.8149 80.8905
26.6171 24.5941 23.6871 23.4555 22.9213
5.8577 6.6861 7.2848 6.2326 4.4187
26.6171 24.5941 23.6871 23.4555 22.9213
68.1127 61.8634 58.8701 59.1205 59.1820
-76.3605 -72.1431 -70.5353 -68.6237 -64.9785
-10.0406 -8.0188 -6.8878 -7.7899 -9.2647
79.2917 71.2243 67.2431 68.1576 69.2846
5.8577 6.6861 7.2848 6.2326 4.4187
103.9791 97.8705 95.4519 93.1365 88.6601
26.6171 24.5941 23.6871 23.4555 22.9213
-84.9244 -80.2660 -78.4980 -76.3469 -72.2502
-96.0028 -89.9999 -87.5392 -85.6869 -82.0373
-14.0295 -14.2850 -14.6354 -13.4742 -11.4322
26.6171 24.5941 23.6871 23.4555 22.9213
-73.1442 -69.0873 -67.5364 -65.7189 -62.2501
90.1542 87.4370 86.9566 82.9214 75.6050
93.1809 83.6311 78.9091 80.0382 81.4548
25.2078 23.5671 22.8806 22.4449 21.5725
26.6171 24.5941 23.6871 23.4555 22.9213
26.6171 24.5941 23.6871 23.4555 22.9213
68.1127 61.8634 58.8701 59.1205 59.1820
26.6171 24.5941 23.6871 23.4555 22.9213
44.9840 42.5116 41.5720 40.4364 38.2730
5.8577 6.6861 7.2848 6.2326 4.4187
87.3893 80.7838 77.8286 77.0396 75.2373
5.8577 6.6861 7.2848 6.2326 4.4187
53.8048 50.2230 48.7077 47.8404 46.0846
12.3092 12.9538 13.5247 12.1754 9.8239
89.6712 86.2302 85.2895 81.8565 75.5627
-258.7854 -244.5880 -239.1987 -232.6456 -220.1652
1.9170 3.9323 5.2214 3.5059 0.5893
-92.3709 -86.6239 -84.2745 -82.4695 -78.9195
-73.9583 -69.8387 -68.2596 -66.4356 -62.9515
-22.4572 -23.0000 -23.6448 -21.6808 -18.2339
68.1127 61.8634 58.8701 59.1205 59.1820
7.6073 9.1736 10.2584 8.5064 5.4977
116.3643 110.8967 109.0477 105.3807 98.5484
52.2870 49.5063 48.4725 47.0794 44.4407
92.6760 83.4282 78.8887 79.8149 80.8905
5.8577 6.6861 7.2848 6.2326 4.4187
68.1127 61.8634 58.8701 59.1205 59.1820
5.8577 6.6861 7.2848 6.2326 4.4187
6.7919 1.8507 -1.1543 2.2653 8.0225
-62.9280 -59.5077 -58.2173 -56.5986 -53.5211
103.9791 97.8705 95.4519 93.1365 88.6601
-14.0295 -14.2850 -14.6354 -13.4742 -11.4322
-95.4902 -89.6447 -87.2758 -85.3347 -81.5376
25.5426 23.4657 22.5103 22.3946 22.0626
35.2719 32.7516 31.6502 31.2171 30.2956
-47.7896 -44.4781 -43.0506 -42.3826 -40.9965
18.8996 17.2321 16.4433 16.4604 16.3888
39.1678 36.3845 35.1712 34.6781 33.6342
25.5426 23.4657 22.5103 22.3946 22.0626
25.5426 23.4657 22.5103 22.3946 22.0626
5.0784 4.4804 4.1744 4.2969 4.4774
9.4826 8.8424 8.5696 8.4239 8.1265
43.8282 40.2324 38.5729 38.3996 37.8727
-22.0205 -21.2258 -21.0264 -20.1437 -18.5311
35.2719 32.7516 31.6502 31.2171 30.2956
25.5426 23.4657 22.5103 22.3946 22.0626
-17.5843 -15.4473 -14.3463 -14.8227 -15.5360
-1.7279 -1.2685 -1.0041 -1.2469 -1.6491
-4.8867 -5.5664 -6.0586 -5.1898 -3.6919
28.1371 26.9838 26.6425 25.6231 23.7463
29.8238 28.2519 27.6712 26.8654 25.3414
35.2719 32.7516 31.6502 31.2171 30.2956
52.3591 48.1866 46.2814 45.9775 45.1838
-45.4042 -42.8335 -41.8379 -40.7509 -38.6674
-3.5306 -2.6681 -2.1754 -2.6117 -3.3322
43.8282 40.2324 38.5729 38.3996 37.8727
9.4610 9.8589 10.2366 9.2762 7.5986
-28.2585 -27.0496 -26.6751 -25.6912 -23.8736
-19.5643 -18.8886 -18.7303 -17.9224 -16.4493
25.5426 23.4657 22.5103 22.3946 22.0626
38.5738 36.4501 35.6420 34.6712 32.8209
23.4130 22.4130 22.1037 21.2872 19.7792
43.8282 40.2324 38.5729 38.3996 37.8727
25.5426 23.4657 22.5103 22.3946 22.0626
-3.5306 -2.6681 -2.1754 -2.6117 -3.3322
25.5426 23.4657 22.5103 22.3946 22.0626
36.3861 33.8112 32.6907 32.2243 31.2402
-24.0938 -23.1553 -22.8939 -21.9823 -20.3098
0.9167 2.1897 3.0001 1.9366 0.1299
36.2542 33.4174 32.1309 31.8794 31.2603
-3.5306 -2.6681 -2.1754 -2.6117 -3.3322
35.2719 32.7516 31.6502 31.2171 30.2956
25.5426 23.4657 22.5103 22.3946 22.0626
-28.1316 -26.9454 -26.5834 -25.5903 -23.7579
-51.5605 -48.5972 -47.4391 -46.2393 -43.9319
-1.7279 -1.2685 -1.0041 -1.2469 -1.6491
25.5426 23.4657 22.5103 22.3946 22.0626
-22.4547 -21.6104 -21.3858 -20.5124 -18.9132
22.1651 21.2222 20.9318 20.1558 18.7231
43.9379 40.4253 38.8195 38.5733 37.9222
8.0492 7.3920 7.0893 7.0549 6.9538
25.5426 23.4657 22.5103 22.3946 22.0626
25.5426 23.4657 22.5103 22.3946 22.0626
36.3861 33.8112 32.6907 32.2243 31.2402
25.5426 23.4657 22.5103 22.3946 22.0626
37.7142 35.1117 33.9919 33.4562 32.3480
-3.5306 -2.6681 -2.1754 -2.6117 -3.3322
47.5803 44.6706 43.4921 42.5226 40.6266
-3.5306 -2.6681 -2.1754 -2.6117 -3.3322
28.7637 27.3548 26.8618 26.0005 24.3881
17.9203 17.0094 16.6815 16.1709 15.2104
27.6496 26.2952 25.8213 24.9934 23.4434
-125.5421 -117.6642 -114.4289 -112.0285 -107.2932
14.4199 13.9565 13.8617 13.2389 12.1069
-49.6422 -46.8388 -45.7549 -44.5607 -42.2731
-22.5948 -21.7240 -21.4846 -20.6225 -19.0416
-8.2081 -7.8486 -7.7345 -7.4553 -6.9385
36.3861 33.8112 32.6907 32.2243 31.2402
17.5671 16.7436 16.4656 15.9105 14.8765
38.2571 35.9674 35.0511 34.2324 32.6415
40.2040 37.4986 36.3481 35.7229 34.4496
43.8282 40.2324 38.5729 38.3996 37.8727
-3.5306 -2.6681 -2.1754 -2.6117 -3.3322
36.3861 33.8112 32.6907 32.2243 31.2402
-3.5306 -2.6681 -2.1754 -2.6117 -3.3322
0.6109 -0.4926 -1.1760 -0.3503 1.0453
-17.4487 -16.8999 -16.7925 -16.0296 -14.6440
35.2719 32.7516 31.6502 31.2171 30.2956
-1.7279 -1.2685 -1.0041 -1.2469 -1.6491
-5340.8877 -5108.0537 -5034.5464 -4851.9946 -4514.2734
261.4174 250.7373 247.5884 238.0900 220.6058
3760.6580 3557.2092 3480.6897 3383.2063 3198.0225
-3347.3469 -3238.7637 -3216.0996 -3072.3306 -2810.9309
-192.8130 -171.4051 -160.6017 -164.2330 -169.3582
760.3238 737.7242 733.8702 699.5913 637.4670
261.4174 250.7373 247.5884 238.0900 220.6058
261.4174 250.7373 247.5884 238.0900 220.6058
2336.7788 2229.2742 2193.5815 2118.1392 1977.8806
2671.7039 2576.1309 2552.4587 2444.7104 2247.9353
2908.1846 2585.7515 2423.0935 2477.5010 2554.1917
-2735.6262 -2566.6753 -2497.8779 -2443.4392 -2336.6409
3760.6580 3557.2092 3480.6897 3383.2063 3198.0225
261.4174 250.7373 247.5884 238.0900 220.6058
-362.0984 -179.5508 -70.0430 -188.7643 -387.9741
-549.5236 -592.7012 -627.2166 -555.6575 -431.4954
60.1126 -116.5602 -226.4811 -91.7069 136.3081
1584.3303 1461.1376 1405.4076 1393.8044 1365.7095
3698.7019 3556.2668 3517.1499 3375.9421 3117.0107
3760.6580 3557.2092 3480.6897 3383.2063 3198.0225
3394.1843 3018.1006 2828.4060 2891.7229 2980.9197
-2155.4487 -2000.7444 -1933.0085 -1907.0840 -1851.6842
496.8639 495.4771 501.3461 468.4252 410.0047
2908.1846 2585.7515 2423.0935 2477.5010 2554.1917
2637.8269 2647.4248 2689.2136 2501.1050 2168.3643
-3146.1699 -2947.0225 -2864.8660 -2806.0635 -2689.6858
-2502.7144 -2343.1787 -2277.1245 -2231.2268 -2140.1394
261.4174 250.7373 247.5884 238.0900 220.6058
2041.2407 1860.7958 1775.3773 1777.5061 1770.2424
3556.4009 3465.3157 3456.4543 3284.6194 2974.5569
2908.1846 2585.7515 2423.0935 2477.5010 2554.1917
261.4174 250.7373 247.5884 238.0900 220.6058
496.8639 495.4771 501.3461 468.4252 410.0047
261.4174 250.7373 247.5884 238.0900 220.6058
2007.9865 1786.6508 1675.1515 1711.7023 1762.9338
-2851.1838 -2669.9026 -2594.9441 -2542.2883 -2437.8955
-553.5133 -509.6603 -489.6801 -486.2659 -477.5339
2503.8381 2213.3503 2065.2319 2122.2041 2205.3928
496.8639 495.4771 501.3461 468.4252 410.0047
3760.6580 3557.2092 3480.6897 3383.2063 3198.0225
261.4174 250.7373 247.5884 238.0900 220.6058
-3113.0779 -2919.9080 -2841.0496 -2779.8130 -2659.4875
-2545.1223 -2368.5139 -2292.3335 -2256.9548 -2183.4624
-549.5236 -592.7012 -627.2166 -555.6575 -431.4954
261.4174 250.7373 247.5884 238.0900 220.6058
-2758.9382 -2581.9424 -2508.4187 -2458.7087 -2359.7976
3510.9729 3420.6169 3411.5967 3242.2979 2936.7747
2909.7668 2569.4324 2395.5754 2463.9478 2564.2888
1028.9976 967.9919 943.7090 921.2315 877.6703
261.4174 250.7373 247.5884 238.0900 220.6058
261.4174 250.7373 247.5884 238.0900 220.6058
2007.9865 1786.6508 1675.1515 1711.7023 1762.9338
261.4174 250.7373 247.5884 238.0900 220.6058
643.2120 633.2983 635.8073 599.5721 534.7571
496.8639 495.4771 501.3461 468.4252 410.0047
2461.7827 2237.4082 2130.1584 2138.0352 2138.2700
496.8639 495.4771 501.3461 468.4252 410.0047
1526.2316 1394.6310 1332.8433 1331.8268 1321.9769
-220.3374 -141.2823 -94.7197 -141.7855 -220.3511
3278.9026 3165.1892 3138.3816 3003.3306 2757.0654
-7634.9556 -7250.7588 -7113.4902 -6892.8979 -6478.5122
-623.3779 -489.8619 -414.6297 -476.9205 -579.1342
-2436.9646 -2266.4463 -2192.6162 -2159.8535 -2091.3691
-2793.2356 -2614.4529 -2540.2742 -2489.6211 -2388.9299
-694.0586 -749.7427 -794.0572 -702.7725 -544.4218
2007.9865 1786.6508 1675.1515 1711.7023 1762.9338
-471.8496 -344.6085 -271.2544 -338.9846 -451.2207
4202.0449 4024.4783 3970.1675 3822.1233 3548.9292
888.3428 869.4231 869.6116 823.6768 741.1232
2908.1846 2585.7515 2423.0935 2477.5010 2554.1917
496.8639 495.4771 501.3461 468.4252 410.0047
2007.9865 1786.6508 1675.1515 1711.7023 1762.9338
496.8639 495.4771 501.3461 468.4252 410.0047
403.7621 195.7245 70.8049 206.7129 434.8185
-2456.6667 -2299.7905 -2234.7783 -2189.9424 -2100.8987
3760.6580 3557.2092 3480.6897 3383.2063 3198.0225
-549.5236 -592.7012 -627.2166 -555.6575 -431.4954
-107.9686 -101.3812 -98.7166 -96.5045 -92.1819
27.4863 25.2557 24.2303 24.1024 23.7394
44.3334 41.2011 39.8391 39.2668 38.0611
-58.2514 -54.3893 -52.7585 -51.8073 -49.8856
19.9433 18.1920 17.3647 17.3764 17.2899
42.4428 39.4403 38.1339 37.5891 36.4399
27.4863 25.2557 24.2303 24.1024 23.7394
27.4863 25.2557 24.2303 24.1024 23.7394
11.1458 10.1718 9.7125 9.7153 9.6605
16.3096 15.2831 14.8608 14.5514 13.9403
51.2654 46.9225 44.8957 44.8006 44.3665
-26.6174 -25.5208 -25.1944 -24.2345 -22.4665
44.3334 41.2011 39.8391 39.2668 38.0611
27.4863 25.2557 24.2303 24.1024 23.7394
-20.3892 -17.9269 -16.6600 -17.2001 -18.0065
-5.7939 -5.2015 -4.9087 -4.9778 -5.0641
-3.4671 -4.5064 -5.2049 -4.1505 -2.3457
31.3204 29.9132 29.4559 28.4182 26.4934
38.9507 36.8607 36.0790 35.0558 33.1147
44.3334 41.2011 39.8391 39.2668 38.0611
61.4133 56.3561 54.0192 53.7910 53.0773
-52.4291 -49.4410 -48.2792 -47.0394 -44.6596
-5.0560 -4.0292 -3.4542 -3.9153 -4.6695
51.2654 46.9225 44.8957 44.8006 44.3665
16.7049 16.8397 17.1508 15.9013 13.6955
-33.8442 -32.2603 -31.7265 -30.6550 -28.6594
-23.7067 -22.7554 -22.4806 -21.6057 -19.9973
27.4863 25.2557 24.2303 24.1024 23.7394
42.8480 40.3455 39.3580 38.3923 36.5281
32.7191 31.2399 30.7565 29.6797 27.6811
51.2654 46.9225 44.8957 44.8006 44.3665
27.4863 25.2557 24.2303 24.1024 23.7394
-5.0560 -4.0292 -3.4542 -3.9153 -4.6695
27.4863 25.2557 24.2303 24.1024 23.7394
40.3372 37.3267 35.9867 35.5923 34.7092
-29.0384 -27.7723 -27.3725 -26.3801 -24.5442
-3.1564 -1.6294 -0.7151 -1.6995 -3.3504
43.6165 40.0624 38.4262 38.2346 37.6777
-5.0560 -4.0292 -3.4542 -3.9153 -4.6695
44.3334 41.2011 39.8391 39.2668 38.0611
27.4863 25.2557 24.2303 24.1024 23.7394
-33.6523 -32.1025 -31.5875 -30.5023 -28.4845
-59.3784 -55.9384 -54.5876 -53.2273 -50.6066
-5.7939 -5.2015 -4.9087 -4.9778 -5.0641
27.4863 25.2557 24.2303 24.1024 23.7394
-27.1794 -26.0195 -25.6611 -24.7125 -22.9605
31.2927 29.8784 29.4163 28.3861 26.4741
51.8424 47.5406 45.5473 45.3805 44.8217
8.6666 7.9084 7.5507 7.5535 7.5122
27.4863 25.2557 24.2303 24.1024 23.7394
27.4863 25.2557 24.2303 24.1024 23.7394
40.3372 37.3267 35.9867 35.5923 34.7092
27.4863 25.2557 24.2303 24.1024 23.7394
40.7428 37.9487 36.7499 36.1576 34.9370
-5.0560 -4.0292 -3.4542 -3.9153 -4.6695
52.7356 49.3550 47.9512 46.9990 45.1050
-5.0560 -4.0292 -3.4542 -3.9153 -4.6695
31.9223 30.2374 29.6142 28.7536 27.1257
19.0714 18.1663 17.8577 17.2637 16.1559
35.9185 34.1118 33.4665 32.4281 30.4776
-145.7534 -136.6515 -132.9231 -130.1015 -124.5449
14.7803 14.4131 14.3835 13.6604 12.3566
-57.2193 -53.9614 -52.6954 -51.3398 -48.7384
-27.4526 -26.2564 -25.8789 -24.9401 -23.2035
-10.4488 -10.0769 -9.9855 -9.5626 -8.7906
40.3372 37.3267 35.9867 35.5923 34.7092
18.5002 17.7288 17.4963 16.8363 15.6196
48.6406 45.7301 44.5655 43.5240 41.5006
44.2202 41.2640 40.0108 39.3079 37.8814
51.2654 46.9225 44.8957 44.8006 44.3665
-5.0560 -4.0292 -3.4542 -3.9153 -4.6695
40.3372 37.3267 35.9867 35.5923 34.7092
-5.0560 -4.0292 -3.4542 -3.9153 -4.6695
2.8158 1.2837 0.3615 1.3732 3.0723
-21.4990 -20.6809 -20.4596 -19.6311 -18.1130
44.3334 41.2011 39.8391 39.2668 38.0611
-5.7939 -5.2015 -4.9087 -4.9778 -5.0641
-129.3974 -122.8020 -120.4229 -116.7504 -109.8393
17.1564 15.8634 15.2857 15.1278 14.7688
76.6554 72.2030 70.4518 68.7049 65.3370
-75.3649 -71.9590 -70.8463 -68.3650 -63.7597
5.9189 5.3765 5.1168 5.1381 5.1425
31.3945 29.5818 28.8713 28.1474 26.7538
17.1564 15.8634 15.2857 15.1278 14.7688
17.1564 15.8634 15.2857 15.1278 14.7688
38.3464 36.3920 35.6870 34.5986 32.5503
45.1658 43.3999 42.9055 41.2021 38.0757
70.2791 63.5460 60.2789 60.7613 61.2044
-55.0297 -52.0300 -50.8960 -49.4874 -46.8078
76.6554 72.2030 70.4518 68.7049 65.3370
17.1564 15.8634 15.2857 15.1278 14.7688
-19.2382 -15.1887 -12.9114 -14.7780 -17.8379
-8.1030 -8.5284 -8.9049 -8.0158 -6.4664
1.1727 -1.7886 -3.6288 -1.3811 2.4208
33.7757 31.7882 31.0006 30.2510 28.8012
71.0112 68.0958 67.2315 64.6626 59.9321
76.6554 72.2030 70.4518 68.7049 65.3370
82.7090 74.8892 71.1094 71.5954 71.9782
-60.0119 -56.2043 -54.6316 -53.5170 -51.3090
5.8794 6.3169 6.6708 5.9244 4.6287
70.2791 63.5460 60.2789 60.7613 61.2044
43.8153 44.2083 45.0488 41.7406 35.9026
-65.0611 -61.3648 -59.9303 -58.3826 -55.4140
-50.0899 -47.3012 -46.2326 -44.9961 -42.6347
17.1564 15.8634 15.2857 15.1278 14.7688
47.1442 43.7347 42.2370 41.6903 40.5129
66.0355 64.1269 63.8261 60.8063 55.3385
70.2791 63.5460 60.2789 60.7613 61.2044
17.1564 15.8634 15.2857 15.1278 14.7688
5.8794 6.3169 6.6708 5.9244 4.6287
17.1564 15.8634 15.2857 15.1278 14.7688
47.6424 43.2171 41.0894 41.3072 41.4224
-58.0684 -54.8035 -53.5445 -52.1363 -49.4414
-8.4075 -6.9927 -6.2200 -6.7567 -7.6212
60.4596 54.6473 51.8241 52.2548 52.6626
5.8794 6.3169 6.6708 5.9244 4.6287
76.6554 72.2030 70.4518 68.7049 65.3370
17.1564 15.8634 15.2857 15.1278 14.7688
-64.2726 -60.6864 -59.3103 -57.7300 -54.7102
-69.4069 -65.0467 -63.2549 -61.9317 -59.3203
-8.1030 -8.5284 -8.9049 -8.0158 -6.4664
17.1564 15.8634 15.2857 15.1278 14.7688
-55.9459 -52.7864 -51.5647 -50.2190 -47.6411
64.6200 62.7553 62.4629 59.5054 54.1508
70.5208 63.6169 60.2459 60.8461 61.4874
18.7229 17.5147 17.0114 16.6796 16.0177
17.1564 15.8634 15.2857 15.1278 14.7688
17.1564 15.8634 15.2857 15.1278 14.7688
47.6424 43.2171 41.0894 41.3072 41.4224
17.1564 15.8634 15.2857 15.1278 14.7688
28.4713 26.9724 26.4191 25.6485 24.1913
5.8794 6.3169 6.6708 5.9244 4.6287
58.1230 53.6662 51.6609 51.1860 50.0718
5.8794 6.3169 6.6708 5.9244 4.6287
34.2070 31.8807 30.8865 30.3738 29.3230
3.7210 4.5270 5.0827 4.1944 2.6694
63.2200 60.8666 60.2489 57.7715 53.2376
-183.6464 -173.5614 -169.7307 -165.0881 -156.2446
-3.7636 -1.9433 -0.8534 -2.0268 -3.9947
-66.6696 -62.4953 -60.7831 -59.5010 -56.9739
-56.6500 -53.4416 -52.1989 -50.8433 -48.2451
-20.0595 -20.2384 -20.6226 -19.1088 -16.4374
47.6424 43.2171 41.0894 41.3072 41.4224
0.4459 1.9517 2.9016 1.6873 -0.3724
84.0062 80.1122 78.8106 76.1216 71.1184
34.4158 32.6774 32.0545 31.0653 29.2062
70.2791 63.5460 60.2789 60.7613 61.2044
5.8794 6.3169 6.6708 5.9244 4.6287
47.6424 43.2171 41.0894 41.3072 41.4224
5.8794 6.3169 6.6708 5.9244 4.6287
9.0420 5.4089 3.2544 5.4915 9.2336
-48.4900 -45.7991 -44.7701 -43.5663 -41.2686
76.6554 72.2030 70.4518 68.7049 65.3370
-8.1030 -8.5284 -8.9049 -8.0158 -6.4664
-87.4720 -82.0527 -79.8422 -78.1149 -74.7228
24.2048 22.2250 21.3124 21.2119 20.9127
31.7269 29.4552 28.4616 28.0757 27.2530
-43.9179 -40.7689 -39.3908 -38.8601 -37.7270
18.2437 16.6221 15.8531 15.8791 15.8260
36.7295 34.0983 32.9473 32.5015 31.5508
24.2048 22.2250 21.3124 21.2119 20.9127
24.2048 22.2250 21.3124 21.2119 20.9127
4.2461 3.7021 3.4188 3.5557 3.7652
8.1919 7.6051 7.3484 7.2490 7.0368
38.6397 35.5499 34.1373 33.9214 33.3497
-18.8330 -18.2514 -18.1423 -17.3104 -15.8005
31.7269 29.4552 28.4616 28.0757 27.2530
24.2048 22.2250 21.3124 21.2119 20.9127
-16.8421 -14.8750 -13.8705 -14.2640 -14.8411
-1.9551 -1.4043 -1.0856 -1.3848 -1.8813
-5.8483 -6.2816 -6.6325 -5.8915 -4.6051
24.1686 23.2826 23.0549 22.0971 20.3457
26.5192 25.1162 24.5965 23.8842 22.5361
31.7269 29.4552 28.4616 28.0757 27.2530
46.1125 42.5425 40.9302 40.5803 39.7418
-41.9475 -39.6014 -38.6998 -37.6727 -35.7094
-3.1996 -2.3909 -1.9273 -2.3441 -3.0332
38.6397 35.5499 34.1373 33.9214 33.3497
8.0496 8.4086 8.7427 7.9095 6.4550
-24.4950 -23.5438 -23.2798 -22.3508 -20.6466
-16.6521 -16.1733 -16.0989 -15.3355 -13.9535
24.2048 22.2250 21.3124 21.2119 20.9127
33.7783 32.0114 31.3620 30.4389 28.6950
20.8961 19.9826 19.6935 18.9812 17.6632
38.6397 35.5499 34.1373 33.9214 33.3497
24.2048 22.2250 21.3124 21.2119 20.9127
-3.1996 -2.3909 -1.9273 -2.3441 -3.0332
24.2048 22.2250 21.3124 21.2119 20.9127
32.0703 29.8743 28.9328 28.4639 27.4987
-20.7137 -20.0041 -19.8402 -18.9802 -17.4128
0.2508 1.5672 2.3956 1.3436 -0.4400
31.3361 28.9798 27.9278 27.6352 26.9726
-3.1996 -2.3909 -1.9273 -2.3441 -3.0332
31.7269 29.4552 28.4616 28.0757 27.2530
24.2048 22.2250 21.3124 21.2119 20.9127
-24.4107 -23.4737 -23.2175 -22.2831 -20.5701
-47.4867 -44.7908 -43.7450 -42.6138 -40.4445
-1.9551 -1.4043 -1.0856 -1.3848 -1.8813
24.2048 22.2250 21.3124 21.2119 20.9127
-19.2380 -18.6147 -18.4848 -17.6580 -16.1547
19.7194 18.8610 18.5904 17.9154 16.6668
38.3587 35.3925 34.0535 33.7597 33.0575
6.7237 6.1752 5.9226 5.8935 5.8085
24.2048 22.2250 21.3124 21.2119 20.9127
24.2048 22.2250 21.3124 21.2119 20.9127
32.0703 29.8743 28.9328 28.4639 27.4987
24.2048 22.2250 21.3124 21.2119 20.9127
35.3587 32.8946 31.8297 31.3464 30.3394
-3.1996 -2.3909 -1.9273 -2.3441 -3.0332
41.9812 39.5044 38.5213 37.5947 35.8014
-3.1996 -2.3909 -1.9273 -2.3441 -3.0332
24.9845 23.8475 23.4738 22.6573 21.1410
17.1189 16.1983 15.8534 15.4053 14.5551
24.6410 23.4284 23.0025 22.2691 20.8953
-114.7222 -107.4654 -104.4727 -102.3247 -98.0745
14.0767 13.5512 13.4127 12.8622 11.8548
-45.7593 -43.2088 -42.2307 -41.1035 -38.9501
-19.3662 -18.7178 -18.5740 -17.7581 -16.2726
-8.6571 -8.1987 -8.0288 -7.7966 -7.3570
32.0703 29.8743 28.9328 28.4639 27.4987
17.1647 16.2831 15.9633 15.4814 14.5735
34.3997 32.3286 31.4970 30.7705 29.3563
37.6626 35.1081 34.0177 33.4478 32.2818
38.6397 35.5499 34.1373 33.9214 33.3497
-3.1996 -2.3909 -1.9273 -2.3441 -3.0332
32.0703 29.8743 28.9328 28.4639 27.4987
-3.1996 -2.3909 -1.9273 -2.3441 -3.0332
-0.9037 -1.7144 -2.2348 -1.5356 -0.3463
-14.6720 -14.3129 -14.2867 -13.5647 -12.2634
31.7269 29.4552 28.4616 28.0757 27.2530
-1.9551 -1.4043 -1.0856 -1.3848 -1.8813
-731.4581 -670.9549 -642.9518 -640.4464 -632.3063
250.9061 227.8167 216.7472 217.7238 218.0421
228.7671 210.7619 202.5789 201.0741 197.3062
-392.0717 -357.9029 -341.8033 -341.8269 -339.7790
227.1169 205.4386 194.9310 196.4266 197.7511
347.8199 317.0151 302.4240 302.8321 301.6711
250.9061 227.8167 216.7472 217.7238 218.0421
250.9061 227.8167 216.7472 217.7238 218.0421
54.3599 49.7869 47.6578 47.5318 47.0288
77.7994 71.8610 69.1940 68.5369 67.0093
206.2078 191.0417 184.3322 182.1396 177.3269
-6.4881 -10.6469 -13.3416 -9.6281 -3.3020
228.7671 210.7619 202.5789 201.0741 197.3062
250.9061 227.8167 216.7472 217.7238 218.0421
-184.0210 -162.7653 -151.9381 -156.0515 -162.0405
-101.7665 -90.7397 -85.2083 -86.9109 -89.2534
-106.9230 -97.4255 -92.9225 -93.0699 -92.7502
241.5997 225.6665 218.9563 214.9441 206.8601
189.3473 175.3937 169.2155 167.2239 162.8414
228.7671 210.7619 202.5789 201.0741 197.3062
224.9385 208.7635 201.6758 198.9941 193.2531
-264.2455 -239.9336 -228.2788 -229.3033 -229.6318
-119.7091 -105.3281 -97.9377 -101.0489 -105.6824
206.2078 191.0417 184.3322 182.1396 177.3269
5.9482 7.9453 9.2777 7.3006 3.9192
-38.3619 -39.9176 -41.4130 -37.5640 -30.8388
4.2882 -0.4003 -3.2808 0.1114 5.8358
250.9061 227.8167 216.7472 217.7238 218.0421
309.4005 287.6749 278.2534 274.1539 265.5607
125.6554 117.3019 113.7701 111.7358 107.6201
206.2078 191.0417 184.3322 182.1396 177.3269
250.9061 227.8167 216.7472 217.7238 218.0421
-119.7091 -105.3281 -97.9377 -101.0489 -105.6824
250.9061 227.8167 216.7472 217.7238 218.0421
295.6008 274.0784 264.5972 261.2825 254.0925
-19.0634 -21.9875 -24.0788 -20.4751 -14.2683
-149.6777 -132.4792 -123.7293 -127.0040 -131.7550
99.7496 94.4545 92.4883 89.8230 84.7762
-119.7091 -105.3281 -97.9377 -101.0489 -105.6824
228.7671 210.7619 202.5789 201.0741 197.3062
250.9061 227.8167 216.7472 217.7238 218.0421
-43.5912 -44.5906 -45.8081 -42.0386 -35.4201
-294.0258 -267.7315 -255.2380 -255.7824 -255.1390
-101.7665 -90.7397 -85.2083 -86.9109 -89.2534
250.9061 227.8167 216.7472 217.7238 218.0421
-5.8971 -9.8932 -12.4778 -8.9327 -2.8951
117.0441 109.3995 106.1953 104.1931 100.1778
164.6715 153.4875 148.7107 146.2309 141.1526
39.5487 39.3231 39.7180 37.1882 32.6916
250.9061 227.8167 216.7472 217.7238 218.0421
250.9061 227.8167 216.7472 217.7238 218.0421
295.6008 274.0784 264.5972 261.2825 254.0925
250.9061 227.8167 216.7472 217.7238 218.0421
339.4223 309.4061 295.1954 295.5583 294.3657
-119.7091 -105.3281 -97.9377 -101.0489 -105.6824
379.7019 352.0935 339.9382 335.6511 326.3658
-119.7091 -105.3281 -97.9377 -101.0489 -105.6824
246.2827 229.4469 222.2343 218.6112 211.1614
201.5879 183.1852 174.3843 175.0525 175.1109
179.4490 166.1304 160.2161 158.4028 154.3751
-887.7294 -813.7502 -779.4199 -776.8114 -767.6646
138.8663 126.2646 120.2492 120.6503 120.5904
-285.4326 -259.7190 -247.4728 -248.1490 -247.7747
-4.0548 -8.1957 -10.8462 -7.3133 -1.3062
71.4419 67.2758 65.6334 64.0182 60.9013
295.6008 274.0784 264.5972 261.2825 254.0925
176.5762 160.4921 152.8055 153.3629 153.3669
245.8048 227.0626 218.6487 216.5569 211.7041
325.9530 297.3443 283.8331 284.0116 282.5781
206.2078 191.0417 184.3322 182.1396 177.3269
-119.7091 -105.3281 -97.9377 -101.0489 -105.6824
295.6008 274.0784 264.5972 261.2825 254.0925
-119.7091 -105.3281 -97.9377 -101.0489 -105.6824
-63.4441 -57.6279 -54.8428 -55.0723 -55.1232
21.9747 15.7354 12.1227 15.5234 21.1680
228.7671 210.7619 202.5789 201.0741 197.3062
-101.7665 -90.7397 -85.2083 -86.9109 -89.2534
-397.3804 -376.4290 -368.6860 -357.9554 -337.6594
63.7943 58.8251 56.5757 56.1153 54.9956
221.5030 208.1331 202.7569 198.1053 189.0449
-233.2013 -221.7410 -217.7204 -210.7668 -197.7441
34.6929 31.6665 30.2402 30.2445 30.0671
110.5122 103.5707 100.7186 98.6108 94.4513
63.7943 58.8251 56.5757 56.1153 54.9956
63.7943 58.8251 56.5757 56.1153 54.9956
109.9452 104.0101 101.7811 98.9209 93.4898
131.8348 126.2494 124.5364 119.9030 111.3511
199.2171 179.3598 169.6152 171.5890 173.8723
-143.7051 -136.0382 -133.1815 -129.3719 -122.1525
221.5030 208.1331 202.7569 198.1053 189.0449
63.7943 58.8251 56.5757 56.1153 54.9956
-47.9480 -36.4457 -29.8864 -35.6467 -45.1505
-35.1473 -35.2657 -35.8166 -33.3176 -28.8967
-5.1911 -13.5933 -18.9301 -11.9694 -0.1491
121.7583 114.2460 111.1886 108.7598 103.9965
211.0919 201.7892 198.8211 191.6848 178.4702
221.5030 208.1331 202.7569 198.1053 189.0449
235.2983 212.1177 200.7794 202.8960 205.2290
-172.0806 -160.6713 -155.8537 -153.0438 -147.3671
0.6036 3.2138 4.8580 2.7648 -0.7849
199.2171 179.3598 169.6152 171.5890 173.8723
130.3714 130.8837 132.9729 123.6460 107.1501
-171.7532 -162.0731 -158.3350 -154.1881 -146.2478
-129.8097 -122.7502 -120.0857 -116.7498 -110.4069
63.7943 58.8251 56.5757 56.1153 54.9956
159.0385 147.4112 142.2802 140.5344 136.7298
193.0178 186.8502 185.6021 177.2383 162.0404
199.2171 179.3598 169.6152 171.5890 173.8723
63.7943 58.8251 56.5757 56.1153 54.9956
0.6036 3.2138 4.8580 2.7648 -0.7849
63.7943 58.8251 56.5757 56.1153 54.9956
151.0010 137.1065 130.4453 131.0321 131.2221
-152.3790 -143.9232 -140.6897 -136.9066 -129.6857
-29.3962 -24.6796 -22.1220 -23.8177 -26.5340
169.3758 152.2038 143.7375 145.6431 147.9695
0.6036 3.2138 4.8580 2.7648 -0.7849
221.5030 208.1331 202.7569 198.1053 189.0449
63.7943 58.8251 56.5757 56.1153 54.9956
-170.3544 -160.9414 -157.3516 -153.0906 -144.9644
-198.7194 -185.7120 -180.2540 -176.8770 -170.0974
-35.1473 -35.2657 -35.8166 -33.3176 -28.8967
63.7943 58.8251 56.5757 56.1153 54.9956
-145.5817 -137.4788 -134.3743 -130.7790 -123.9127
188.7579 182.7400 181.5279 173.3380 158.4575
200.1625 179.6894 169.5716 171.9649 174.9536
54.7113 51.2531 49.8276 48.8011 46.7706
63.7943 58.8251 56.5757 56.1153 54.9956
63.7943 58.8251 56.5757 56.1153 54.9956
151.0010 137.1065 130.4453 131.0321 131.2221
63.7943 58.8251 56.5757 56.1153 54.9956
103.4322 97.3183 94.8888 92.6151 88.2122
0.6036 3.2138 4.8580 2.7648 -0.7849
193.1056 178.1955 171.4689 169.9719 166.4073
0.6036 3.2138 4.8580 2.7648 -0.7849
119.9914 111.6892 108.1127 106.4258 102.9289
32.7847 33.4078 34.2430 31.5090 26.7024
190.4934 182.7158 180.4242 173.4990 160.7518
-550.6661 -519.3638 -507.2118 -494.1258 -469.0231
8.9490 12.6534 15.0967 11.5719 5.5526
-191.0483 -178.5727 -173.3440 -170.0741 -163.5167
-147.1301 -138.9115 -135.7554 -132.1451 -125.2451
-37.6828 -39.4389 -41.0505 -37.0906 -30.1811
151.0010 137.1065 130.4453 131.0321 131.2221
21.1834 23.9311 25.9406 22.3305 16.1015
246.8177 234.7308 230.5022 223.1091 209.2693
117.9263 111.1984 108.5806 105.7975 100.4544
199.2171 179.3598 169.6152 171.5890 173.8723
0.6036 3.2138 4.8580 2.7648 -0.7849
151.0010 137.1065 130.4453 131.0321 131.2221
0.6036 3.2138 4.8580 2.7648 -0.7849
19.3664 8.8561 2.5311 9.4679 21.1172
-124.1711 -117.4531 -114.9262 -111.7078 -105.5940
221.5030 208.1331 202.7569 198.1053 189.0449
-35.1473 -35.2657 -35.8166 -33.3176 -28.8967
-97.7864 -92.1792 -89.9908 -87.7052 -83.3123
21.1137 19.3445 18.5220 18.4675 18.2628
45.2748 42.3729 41.1681 40.3502 38.7235
-53.1894 -49.9642 -48.6639 -47.5585 -45.4026
13.6389 12.3341 11.7013 11.7934 11.8769
33.9761 31.5932 30.5604 30.1080 29.1605
21.1137 19.3445 18.5220 18.4675 18.2628
21.1137 19.3445 18.5220 18.4675 18.2628
15.3795 14.3866 13.9728 13.7007 13.1576
20.2983 19.3166 18.9766 18.3589 17.2043
48.3457 44.1939 42.2472 42.2018 41.8673
-29.8350 -28.5859 -28.2075 -27.1473 -25.1921
45.2748 42.3729 41.1681 40.3502 38.7235
21.1137 19.3445 18.5220 18.4675 18.2628
-16.7263 -14.2633 -12.9463 -13.7376 -14.9892
-4.5713 -4.2417 -4.0972 -4.0433 -3.9278
-2.2050 -3.4535 -4.2659 -3.1335 -1.2032
27.5026 26.3145 25.9428 24.9942 23.2406
40.8509 38.9568 38.3236 37.0163 34.5840
45.2748 42.3729 41.1681 40.3502 38.7235
57.6791 52.8464 50.5996 50.4505 49.8908
-47.3014 -44.5430 -43.4555 -42.3862 -40.3226
-1.6897 -0.8830 -0.4003 -0.9188 -1.7882
48.3457 44.1939 42.2472 42.2018 41.8673
21.0892 21.2873 21.6974 20.0981 17.2763
-36.7162 -35.0083 -34.4358 -33.2651 -31.0863
-26.8668 -25.7518 -25.4173 -24.4547 -22.6809
21.1137 19.3445 18.5220 18.4675 18.2628
37.7230 35.5252 34.6593 33.8048 32.1563
35.9386 34.6225 34.2850 32.8596 30.2532
48.3457 44.1939 42.2472 42.2018 41.8673
21.1137 19.3445 18.5220 18.4675 18.2628
-1.6897 -0.8830 -0.4003 -0.9188 -1.7882
21.1137 19.3445 18.5220 18.4675 18.2628
35.9524 33.1999 31.9623 31.6651 30.9702
-32.0459 -30.6323 -30.1809 -29.0986 -27.0942
-2.1247 -0.8192 -0.0298 -0.9106 -2.3916
41.5296 38.0745 36.4721 36.3455 35.9100
-1.6897 -0.8830 -0.4003 -0.9188 -1.7882
45.2748 42.3729 41.1681 40.3502 38.7235
21.1137 19.3445 18.5220 18.4675 18.2628
-36.3887 -34.7252 -34.1761 -32.9929 -30.7947
-53.8574 -50.6949 -49.4431 -48.2426 -45.9220
-4.5713 -4.2417 -4.0972 -4.0433 -3.9278
21.1137 19.3445 18.5220 18.4675 18.2628
-30.4010 -29.0760 -28.6578 -27.6184 -25.6957
34.6821 33.4200 33.0992 31.7174 29.1916
48.8938 44.7406 42.8005 42.7186 42.3196
9.6543 8.9638 8.6619 8.5439 8.2925
21.1137 19.3445 18.5220 18.4675 18.2628
21.1137 19.3445 18.5220 18.4675 18.2628
35.9524 33.1999 31.9623 31.6651 30.9702
21.1137 19.3445 18.5220 18.4675 18.2628
32.2749 30.0940 29.1647 28.6699 27.6598
-1.6897 -0.8830 -0.4003 -0.9188 -1.7882
46.4430 43.4629 42.2249 41.3885 39.7243
-1.6897 -0.8830 -0.4003 -0.9188 -1.7882
27.8985 26.4433 25.9095 25.1438 23.6980
13.0597 12.5879 12.4692 11.9462 10.9906
37.2209 35.6163 35.1153 33.8289 31.4513
-133.9950 -126.0160 -122.8321 -119.9325 -114.3065
8.9546 9.0114 9.1685 8.5108 7.3490
-51.8838 -48.8781 -47.6978 -46.5092 -44.2191
-30.7348 -29.3751 -28.9397 -27.9048 -25.9877
-11.9038 -11.5779 -11.5350 -10.9764 -9.9666
35.9524 33.1999 31.9623 31.6651 30.9702
12.2214 11.9379 11.9259 11.3122 10.2074
49.8706 47.2325 46.2553 44.9155 42.3800
35.9075 33.5601 32.5758 31.9632 30.7341
48.3457 44.1939 42.2472 42.2018 41.8673
-1.6897 -0.8830 -0.4003 -0.9188 -1.7882
35.9524 33.1999 31.9623 31.6651 30.9702
-1.6897 -0.8830 -0.4003 -0.9188 -1.7882
3.4574 1.7614 0.7453 1.8419 3.6813
-25.0701 -24.0621 -23.7703 -22.8467 -21.1483
45.2748 42.3729 41.1681 40.3502 38.7235
-4.5713 -4.2417 -4.0972 -4.0433 -3.9278
-87.9380 -82.9937 -81.0872 -78.9546 -74.8734
20.6343 18.9925 18.2433 18.1215 17.8054
37.0809 34.6263 33.5907 32.9821 31.7535
-45.7405 -42.9519 -41.8244 -40.8856 -39.0515
13.9369 12.7123 12.1337 12.1424 12.0829
32.8799 30.6648 29.7223 29.2130 28.1751
20.6343 18.9925 18.2433 18.1215 17.8054
20.6343 18.9925 18.2433 18.1215 17.8054
9.2072 8.5054 8.1904 8.1119 7.9297
13.7079 12.9988 12.7402 12.3593 11.6411
42.6821 39.0581 37.3655 37.2928 36.9423
-25.3643 -24.2975 -23.9729 -23.0753 -21.4194
37.0809 34.6263 33.5907 32.9821 31.7535
20.6343 18.9925 18.2433 18.1215 17.8054
-15.4098 -13.3963 -12.3433 -12.8713 -13.6839
-1.9061 -1.6959 -1.5900 -1.6248 -1.6735
-3.2173 -4.2304 -4.9091 -3.8924 -2.1528
24.2867 23.3534 23.0978 22.1690 20.4662
32.9563 31.4178 30.9005 29.8540 27.9056
37.0809 34.6263 33.5907 32.9821 31.7535
51.3490 47.1185 45.1632 44.9741 44.3802
-44.5077 -42.1107 -41.2119 -40.0496 -37.8435
-1.4188 -0.8089 -0.4459 -0.8282 -1.4685
42.6821 39.0581 37.3655 37.2928 36.9423
15.7311 15.9874 16.3614 15.0831 12.8336
-31.5529 -30.0828 -29.5893 -28.5851 -26.7159
-22.8202 -21.8736 -21.5898 -20.7719 -19.2646
20.6343 18.9925 18.2433 18.1215 17.8054
33.6402 31.7949 31.0946 30.2425 28.6197
28.3616 27.3047 27.0270 25.9164 23.8838
42.6821 39.0581 37.3655 37.2928 36.9423
20.6343 18.9925 18.2433 18.1215 17.8054
-1.4188 -0.8089 -0.4459 -0.8282 -1.4685
20.6343 18.9925 18.2433 18.1215 17.8054
31.5051 29.1648 28.1252 27.8084 27.1039
-27.3837 -26.1798 -25.7965 -24.8685 -23.1505
1.8975 2.8802 3.5218 2.6194 1.0805
36.9334 33.9129 32.5206 32.3670 31.9100
-1.4188 -0.8089 -0.4459 -0.8282 -1.4685
37.0809 34.6263 33.5907 32.9821 31.7535
20.6343 18.9925 18.2433 18.1215 17.8054
-31.2858 -29.8560 -29.3841 -28.3666 -26.4761
-50.4238 -47.6549 -46.6031 -45.3284 -42.9001
-1.9061 -1.6959 -1.5900 -1.6248 -1.6735
20.6343 18.9925 18.2433 18.1215 17.8054
-25.9089 -24.7812 -24.4258 -23.5388 -21.8980
27.1700 26.1623 25.8992 24.8315 22.8780
43.5354 39.9109 38.2295 38.0988 37.6455
7.3482 6.7063 6.4037 6.4053 6.3688
20.6343 18.9925 18.2433 18.1215 17.8054
20.6343 18.9925 18.2433 18.1215 17.8054
31.5051 29.1648 28.1252 27.8084 27.1039
20.6343 18.9925 18.2433 18.1215 17.8054
31.4514 29.4164 28.5674 28.0143 26.9098
-1.4188 -0.8089 -0.4459 -0.8282 -1.4685
41.4877 38.9394 37.9048 37.0682 35.4299
-1.4188 -0.8089 -0.4459 -0.8282 -1.4685
24.7452 23.5588 23.1507 22.3896 20.9682
13.8745 13.3865 13.2688 12.7027 11.6697
30.3210 29.0203 28.6162 27.5632 25.6178
-119.3694 -112.4215 -109.6854 -106.9765 -101.7513
11.0826 10.9888 11.0804 10.3955 9.1761
-48.6350 -46.0151 -45.0325 -43.7630 -41.3531
-26.1665 -25.0072 -24.6354 -23.7557 -22.1258
-12.0383 -11.5801 -11.4561 -10.9923 -10.1424
31.5051 29.1648 28.1252 27.8084 27.1039
13.8341 13.4292 13.3630 12.7343 11.5956
40.9638 38.7525 37.9220 36.8563 34.8328
34.8263 32.6308 31.7270 31.0690 29.7688
42.6821 39.0581 37.3655 37.2928 36.9423
-1.4188 -0.8089 -0.4459 -0.8282 -1.4685
31.5051 29.1648 28.1252 27.8084 27.1039
-1.4188 -0.8089 -0.4459 -0.8282 -1.4685
1.7561 0.3601 -0.4910 0.4862 2.1324
-21.0367 -20.1896 -19.9439 -19.1698 -17.7464
37.0809 34.6263 33.5907 32.9821 31.7535
-1.9061 -1.6959 -1.5900 -1.6248 -1.6735
-150.3336 -139.9599 -135.4966 -133.3612 -128.9428
45.4039 41.5312 39.7196 39.6561 39.3067
45.7032 42.0316 40.3501 40.1080 39.4545
-71.4750 -65.5842 -62.8612 -62.5996 -61.7758
36.5160 33.1849 31.5922 31.7114 31.7188
66.9338 61.7792 59.4561 58.9266 57.6731
45.4039 41.5312 39.7196 39.6561 39.3067
45.4039 41.5312 39.7196 39.6561 39.3067
0.3360 -0.3491 -0.7739 -0.2583 0.6134
5.7877 5.0006 4.5857 4.8083 5.1546
60.1865 55.3559 53.1443 52.8220 51.9554
-22.3368 -21.9218 -21.9646 -20.7619 -18.6052
45.7032 42.0316 40.3501 40.1080 39.4545
45.4039 41.5312 39.7196 39.6561 39.3067
-29.3712 -25.8198 -23.9922 -24.7736 -25.9410
-3.3412 -2.0584 -1.2997 -2.0795 -3.3827
-12.9078 -12.9880 -13.2133 -12.2667 -10.5943
48.7476 46.5064 45.7628 44.1878 41.2599
35.7307 33.4220 32.4595 31.8286 30.5696
45.7032 42.0316 40.3501 40.1080 39.4545
70.5160 64.9972 62.4943 62.0060 60.8030
-62.8032 -58.6955 -56.9726 -55.9028 -53.7559
-9.6790 -7.8420 -6.8219 -7.6034 -8.8760
60.1865 55.3559 53.1443 52.8220 51.9554
-0.2624 0.6766 1.2615 0.5413 -0.6774
-30.8102 -29.7992 -29.5832 -28.2691 -25.8786
-19.2121 -18.9441 -19.0367 -17.9323 -15.9588
45.4039 41.5312 39.7196 39.6561 39.3067
65.1057 61.4020 59.9635 58.4185 55.4543
22.5549 21.3099 20.8354 20.2702 19.1927
60.1865 55.3559 53.1443 52.8220 51.9554
45.4039 41.5312 39.7196 39.6561 39.3067
-9.6790 -7.8420 -6.8219 -7.6034 -8.8760
45.4039 41.5312 39.7196 39.6561 39.3067
61.9887 57.7839 55.9890 55.0514 53.1326
-25.2426 -24.6017 -24.5423 -23.3183 -21.1101
-3.7001 -1.0727 0.5239 -1.2883 -4.3388
44.2090 40.8768 39.3878 38.9812 38.0569
-9.6790 -7.8420 -6.8219 -7.6034 -8.8760
45.7032 42.0316 40.3501 40.1080 39.4545
45.4039 41.5312 39.7196 39.6561 39.3067
-31.0608 -30.0306 -29.8060 -28.4898 -26.0944
-71.5583 -66.8848 -64.9259 -63.7017 -61.2465
-3.3412 -2.0584 -1.2997 -2.0795 -3.3827
45.4039 41.5312 39.7196 39.6561 39.3067
-22.5714 -22.1095 -22.1260 -20.9441 -18.8216
20.7324 19.5873 19.1508 18.6318 17.6421
57.5144 53.0362 51.0094 50.5929 49.5810
13.1754 12.3225 11.9666 11.7352 11.2730
45.4039 41.5312 39.7196 39.6561 39.3067
45.4039 41.5312 39.7196 39.6561 39.3067
61.9887 57.7839 55.9890 55.0514 53.1326
45.4039 41.5312 39.7196 39.6561 39.3067
64.8875 59.9808 57.7853 57.2010 55.8656
-9.6790 -7.8420 -6.8219 -7.6034 -8.8760
79.9388 74.9564 72.9175 71.3625 68.3022
-9.6790 -7.8420 -6.8219 -7.6034 -8.8760
49.7187 47.1416 46.2005 44.8232 42.2250
33.1340 30.8889 29.9311 29.4280 28.3990
33.4332 31.3893 30.5616 29.8799 28.5468
-187.3754 -174.1021 -168.3237 -165.9321 -160.8826
25.4649 24.0699 23.5409 22.8944 21.6636
-68.7768 -64.3334 -62.4810 -61.2663 -58.8421
-22.4415 -21.9602 -21.9628 -20.8051 -18.7241
0.2337 0.2897 0.3279 0.2679 0.1650
61.9887 57.7839 55.9890 55.0514 53.1326
30.8474 28.8381 27.9970 27.4650 26.3996
48.1864 44.7970 43.3261 42.6922 41.3616
65.7039 60.8329 58.6708 58.0026 56.5206
60.1865 55.3559 53.1443 52.8220 51.9554
-9.6790 -7.8420 -6.8219 -7.6034 -8.8760
61.9887 57.7839 55.9890 55.0514 53.1326
-9.6790 -7.8420 -6.8219 -7.6034 -8.8760
-4.0196 -4.8037 -5.3497 -4.4582 -2.9263
-15.4827 -15.4684 -15.6694 -14.6209 -12.7619
45.7032 42.0316 40.3501 40.1080 39.4545
-3.3412 -2.0584 -1.2997 -2.0795 -3.3827
-72.2013 -67.9624 -66.2847 -64.6748 -61.5627
19.0114 17.4515 16.7317 16.6566 16.4281
31.4155 29.1693 28.1875 27.8029 26.9839
-41.2778 -38.4811 -37.2880 -36.6611 -35.3791
13.2034 11.9949 11.4165 11.4627 11.4708
29.4930 27.4389 26.5513 26.1473 25.3058
19.0114 17.4515 16.7317 16.6566 16.4281
19.0114 17.4515 16.7317 16.6566 16.4281
7.7154 6.9289 6.5405 6.6307 6.7425
11.2562 10.4477 10.0936 9.9587 9.6702
38.1483 35.1165 33.7335 33.5056 32.9165
-20.3952 -19.6539 -19.4659 -18.6525 -17.1659
31.4155 29.1693 28.1875 27.8029 26.9839
19.0114 17.4515 16.7317 16.6566 16.4281
-18.4519 -16.7079 -15.8651 -15.9730 -16.0576
-4.1707 -3.5862 -3.2764 -3.4504 -3.7230
-0.1696 -1.0015 -1.5253 -0.8596 0.2690
16.6650 16.2861 16.2745 15.4317 13.9151
27.4220 25.9554 25.4080 24.6839 23.3111
31.4155 29.1693 28.1875 27.8029 26.9839
46.5887 43.0224 41.4189 41.0334 40.1323
-43.6816 -41.4922 -40.7123 -39.4434 -37.0611
-3.7273 -2.9613 -2.5318 -2.8788 -3.4468
38.1483 35.1165 33.7335 33.5056 32.9165
13.7319 13.6255 13.7451 12.8887 11.3648
-26.0455 -24.9490 -24.6149 -23.6941 -21.9953
-18.2895 -17.6547 -17.5048 -16.7520 -15.3790
19.0114 17.4515 16.7317 16.6566 16.4281
25.0569 23.8938 23.5046 22.7038 21.2136
24.3442 23.1426 22.7195 21.9978 20.6453
38.1483 35.1165 33.7335 33.5056 32.9165
19.0114 17.4515 16.7317 16.6566 16.4281
-3.7273 -2.9613 -2.5318 -2.8788 -3.4468
19.0114 17.4515 16.7317 16.6566 16.4281
23.7139 22.0848 21.3852 21.0427 20.3361
-22.3918 -21.5322 -21.2972 -20.4401 -18.8689
-0.9707 0.2355 0.9784 0.0966 -1.3922
34.7440 32.1513 30.9974 30.6574 29.8962
-3.7273 -2.9613 -2.5318 -2.8788 -3.4468
31.4155 29.1693 28.1875 27.8029 26.9839
19.0114 17.4515 16.7317 16.6566 16.4281
-25.7048 -24.6442 -24.3281 -23.4023 -21.6969
-48.6000 -46.0914 -45.1782 -43.8235 -41.2696
-4.1707 -3.5862 -3.2764 -3.4504 -3.7230
19.0114 17.4515 16.7317 16.6566 16.4281
-21.2618 -20.4606 -20.2467 -19.4212 -17.9094
23.1582 22.0072 21.5997 20.9194 19.6435
39.8982 36.8605 35.4976 35.1545 34.3609
2.4844 2.0886 1.8743 2.0153 2.2411
19.0114 17.4515 16.7317 16.6566 16.4281
19.0114 17.4515 16.7317 16.6566 16.4281
23.7139 22.0848 21.3852 21.0427 20.3361
19.0114 17.4515 16.7317 16.6566 16.4281
28.1572 26.2681 25.4660 25.0236 24.1243
-3.7273 -2.9613 -2.5318 -2.8788 -3.4468
31.3751 29.6536 29.0000 28.2057 26.6930
-3.7273 -2.9613 -2.5318 -2.8788 -3.4468
17.7067 17.0592 16.8935 16.1904 14.9051
13.0042 12.4260 12.2399 11.8043 10.9971
25.4083 24.1438 23.6957 22.9506 21.5529
-104.2845 -98.0302 -95.5243 -93.3027 -88.9833
11.4301 11.1054 11.0569 10.5297 9.5757
-47.1602 -44.7870 -43.9390 -42.5765 -40.0170
-21.5595 -20.7193 -20.4851 -19.6698 -18.1737
-14.8460 -13.9806 -13.6396 -13.3036 -12.6554
23.7139 22.0848 21.3852 21.0427 20.3361
14.0163 13.3792 13.1700 12.7114 11.8598
34.6886 32.5950 31.7532 31.0246 29.6054
32.2125 30.0958 29.2059 28.6649 27.5769
38.1483 35.1165 33.7335 33.5056 32.9165
-3.7273 -2.9613 -2.5318 -2.8788 -3.4468
23.7139 22.0848 21.3852 21.0427 20.3361
-3.7273 -2.9613 -2.5318 -2.8788 -3.4468
3.8808 2.7448 2.0853 2.7128 3.7552
-16.9286 -16.3655 -16.2422 -15.5261 -14.2226
31.4155 29.1693 28.1875 27.8029 26.9839
-4.1707 -3.5862 -3.2764 -3.4504 -3.7230
-347.3906 -330.8668 -325.2210 -314.4316 -294.3022
31.2631 29.2495 28.4114 27.8543 26.7441
226.1601 213.5085 208.6456 203.1106 192.5288
-212.4157 -204.2097 -201.9470 -193.8579 -179.0220
2.1974 2.1950 2.2232 2.0747 1.8115
66.4271 63.3037 62.2467 60.1552 56.2580
31.2631 29.2495 28.4114 27.8543 26.7441
31.2631 29.2495 28.4114 27.8543 26.7441
130.0831 123.8513 121.7093 117.7041 110.2256
150.5540 144.9244 143.4375 137.5575 126.7939
188.1311 168.4084 158.5978 161.2247 164.6734
-160.8045 -151.2579 -147.4550 -143.9526 -137.1625
226.1601 213.5085 208.6456 203.1106 192.5288
31.2631 29.2495 28.4114 27.8543 26.7441
-35.8985 -24.4649 -17.7853 -24.3164 -35.1902
-32.2565 -34.1329 -35.7465 -32.0634 -25.6516
4.3716 -5.5938 -11.7807 -4.2458 8.4967
100.5314 93.2489 90.0476 88.8912 86.3966
218.2849 209.5123 206.9741 198.9286 184.1355
226.1601 213.5085 208.6456 203.1106 192.5288
220.4719 197.4798 186.0585 189.0419 192.9222
-148.3136 -138.0605 -133.6452 -131.5534 -127.2195
21.5508 22.2703 23.0135 20.9727 17.4004
188.1311 168.4084 158.5978 161.2247 164.6734
147.8867 148.5104 150.9069 140.2935 121.5248
-187.1553 -175.7052 -171.0666 -167.2568 -159.8057
-146.7696 -137.8025 -134.1724 -131.1752 -125.3157
31.2631 29.2495 28.4114 27.8543 26.7441
132.3847 121.4002 116.3106 115.8840 114.4563
207.1061 201.4111 200.6503 190.9506 173.4145
188.1311 168.4084 158.5978 161.2247 164.6734
31.2631 29.2495 28.4114 27.8543 26.7441
21.5508 22.2703 23.0135 20.9727 17.4004
31.2631 29.2495 28.4114 27.8543 26.7441
130.4476 116.9721 110.2949 111.9591 114.0841
-168.5081 -158.1981 -154.0211 -150.5916 -143.8839
-32.6162 -29.2631 -27.6038 -28.0071 -28.5168
162.3509 144.7977 135.9973 138.6834 142.3696
21.5508 22.2703 23.0135 20.9727 17.4004
226.1601 213.5085 208.6456 203.1106 192.5288
31.2631 29.2495 28.4114 27.8543 26.7441
-185.1747 -174.0605 -169.6055 -165.6673 -158.0091
-173.2483 -161.5621 -156.5868 -153.9147 -148.4650
-32.2565 -34.1329 -35.7465 -32.0634 -25.6516
31.2631 29.2495 28.4114 27.8543 26.7441
-162.5393 -152.5241 -148.4510 -145.1983 -138.8219
203.8042 198.1936 197.4407 187.9008 170.6529
188.7442 168.1125 157.7405 161.0400 165.6250
58.4763 54.9405 53.5172 52.2941 49.9106
31.2631 29.2495 28.4114 27.8543 26.7441
31.2631 29.2495 28.4114 27.8543 26.7441
130.4476 116.9721 110.2949 111.9591 114.0841
31.2631 29.2495 28.4114 27.8543 26.7441
58.9861 56.6635 56.0077 53.7959 49.7345
21.5508 22.2703 23.0135 20.9727 17.4004
160.7663 146.9397 140.4536 140.3185 139.2335
21.5508 22.2703 23.0135 20.9727 17.4004
98.3820 90.4726 86.8492 86.3328 84.9339
-0.8024 2.7500 4.9657 2.2280 -2.4061
194.0947 187.0090 185.2000 177.4842 163.3786
-494.1987 -467.9631 -458.2209 -445.0172 -420.0156
-24.7916 -18.0206 -14.1129 -17.7388 -23.7498
-166.1376 -154.8838 -150.0831 -147.5578 -142.3947
-164.6017 -154.4669 -150.3468 -147.0469 -140.5797
-44.9208 -47.5096 -49.7414 -44.6314 -35.7347
130.4476 116.9721 110.2949 111.9591 114.0841
-14.2631 -8.0856 -4.4070 -8.2870 -14.7847
251.2655 240.1223 236.5454 228.1060 212.4698
74.3855 71.4842 70.6745 67.8635 62.7050
188.1311 168.4084 158.5978 161.2247 164.6734
21.5508 22.2703 23.0135 20.9727 17.4004
130.4476 116.9721 110.2949 111.9591 114.0841
21.5508 22.2703 23.0135 20.9727 17.4004
26.3250 14.4048 7.2904 14.8593 27.5425
-143.0210 -134.2834 -130.7464 -127.8253 -122.1149
226.1601 213.5085 208.6456 203.1106 192.5288
-32.2565 -34.1329 -35.7465 -32.0634 -25.6516
-95.8992 -90.5295 -88.4644 -86.1213 -81.6409
21.3137 19.6172 18.8429 18.7176 18.3919
41.8265 39.0842 37.9326 37.2254 35.8044
-50.7925 -47.7461 -46.5255 -45.4436 -43.3401
14.0944 12.8541 12.2677 12.2781 12.2205
34.2834 31.9875 31.0135 30.4716 29.3709
21.3137 19.6172 18.8429 18.7176 18.3919
21.3137 19.6172 18.8429 18.7176 18.3919
12.1307 11.2688 10.8931 10.7403 10.4169
17.0268 16.1701 15.8640 15.3720 14.4478
45.9250 41.9016 40.0025 40.0219 39.8101
-28.3887 -27.1414 -26.7446 -25.7819 -23.9998
41.8265 39.0842 37.9326 37.2254 35.8044
21.3137 19.6172 18.8429 18.7176 18.3919
-15.8865 -13.6367 -12.4420 -13.1232 -14.1927
-3.2404 -2.9971 -2.8885 -2.8580 -2.7890
-3.8121 -5.0123 -5.8162 -4.6118 -2.5509
27.0923 25.9557 25.6108 24.6497 22.8773
37.5711 35.8186 35.2296 34.0355 31.8125
41.8265 39.0842 37.9326 37.2254 35.8044
54.9736 50.2820 48.0869 48.0121 47.5926
-46.7217 -44.1363 -43.1494 -41.9838 -39.7600
-0.8041 -0.1468 0.2543 -0.2074 -0.9853
45.9250 41.9016 40.0025 40.0219 39.8101
18.4691 18.7336 19.1498 17.6776 15.0852
-35.0446 -33.3561 -32.7731 -31.7016 -29.6996
-25.5615 -24.4459 -24.0934 -23.2206 -21.6059
21.3137 19.6172 18.8429 18.7176 18.3919
37.0577 34.9347 34.1066 33.2389 31.5715
32.4808 31.2942 30.9910 29.7004 27.3410
45.9250 41.9016 40.0025 40.0219 39.8101
21.3137 19.6172 18.8429 18.7176 18.3919
-0.8041 -0.1468 0.2543 -0.2074 -0.9853
21.3137 19.6172 18.8429 18.7176 18.3919
34.8414 32.1810 30.9860 30.6925 30.0097
-30.5464 -29.1452 -28.6812 -27.6918 -25.8528
0.0863 1.2354 1.9568 1.0475 -0.4934
39.2042 35.8466 34.2738 34.2297 33.9463
-0.8041 -0.1468 0.2543 -0.2074 -0.9853
41.8265 39.0842 37.9326 37.2254 35.8044
21.3137 19.6172 18.8429 18.7176 18.3919
-34.7838 -33.1398 -32.5811 -31.4925 -29.4629
-53.1163 -50.1301 -48.9788 -47.6904 -45.2248
-3.2404 -2.9971 -2.8885 -2.8580 -2.7890
21.3137 19.6172 18.8429 18.7176 18.3919
-28.9165 -27.6005 -27.1677 -26.2229 -24.4683
31.2341 30.0975 29.8086 28.5641 26.2895
46.4964 42.4608 40.5619 40.5517 40.2867
9.0019 8.2678 7.9297 7.8906 7.7766
21.3137 19.6172 18.8429 18.7176 18.3919
21.3137 19.6172 18.8429 18.7176 18.3919
34.8414 32.1810 30.9860 30.6925 30.0097
21.3137 19.6172 18.8429 18.7176 18.3919
32.7162 30.6156 29.7427 29.1546 27.9839
-0.8041 -0.1468 0.2543 -0.2074 -0.9853
45.6028 42.7086 41.5130 40.6666 38.9899
-0.8041 -0.1468 0.2543 -0.2074 -0.9853
27.4074 26.0139 25.5122 24.7316 23.2631
13.8797 13.4501 13.3691 12.7567 11.6454
34.3926 32.9172 32.4588 31.2645 29.0579
-129.8203 -122.2418 -119.2522 -116.3236 -110.6706
10.2749 10.3276 10.5000 9.7552 8.4387
-51.1939 -48.3657 -47.2873 -46.0064 -43.5635
-29.1931 -27.8435 -27.3936 -26.4562 -24.7126
-11.7873 -11.4442 -11.3890 -10.8519 -9.8791
34.8414 32.1810 30.9860 30.6925 30.0097
13.3306 13.0578 13.0676 12.3695 11.1160
46.2069 43.7366 42.8148 41.5939 39.2794
36.1054 33.8492 32.9247 32.2269 30.8524
45.9250 41.9016 40.0025 40.0219 39.8101
-0.8041 -0.1468 0.2543 -0.2074 -0.9853
34.8414 32.1810 30.9860 30.6925 30.0097
-0.8041 -0.1468 0.2543 -0.2074 -0.9853
1.6858 0.0558 -0.9431 0.2230 2.1895
-23.6869 -22.6764 -22.3643 -21.5373 -20.0100
41.8265 39.0842 37.9326 37.2254 35.8044
-3.2404 -2.9971 -2.8885 -2.8580 -2.7890
-464.5490 -442.6227 -435.1796 -420.6176 -393.4728
42.7751 39.9755 38.8008 38.0737 36.6139
296.9815 280.1799 273.6763 266.5559 252.9110
-278.4130 -267.6406 -264.6642 -254.0751 -234.6523
4.2722 4.1615 4.1500 3.9446 3.5739
90.2813 86.0072 84.5527 81.7328 76.4745
42.7751 39.9755 38.8008 38.0737 36.6139
42.7751 39.9755 38.8008 38.0737 36.6139
168.7001 160.4715 157.6017 152.5228 143.0197
194.8850 187.5878 185.6569 178.0533 164.1336
246.0983 219.7442 206.5632 210.4354 215.6851
-213.2048 -200.5689 -195.5402 -190.8796 -181.8483
296.9815 280.1799 273.6763 266.5559 252.9110
42.7751 39.9755 38.8008 38.0737 36.6139
-47.6211 -32.1213 -23.0520 -31.9773 -46.8449
-38.6197 -41.2764 -43.4653 -38.7332 -30.5104
0.0707 -13.2489 -21.5965 -11.1303 6.6012
136.0116 126.4050 122.2282 120.4701 116.7673
285.5699 274.0918 270.7702 260.2459 240.8949
296.9815 280.1799 273.6763 266.5559 252.9110
287.9997 257.2589 241.8967 246.3492 252.3590
-196.0226 -182.3456 -176.4313 -173.7654 -168.2048
30.2813 31.2752 32.3088 29.4547 24.4580
246.0983 219.7442 206.5632 210.4354 215.6851
188.7181 190.0473 193.4398 179.4768 154.8156
-248.3530 -233.1524 -226.9929 -221.9425 -212.0636
-194.4141 -182.5518 -177.7531 -173.7706 -165.9882
42.7751 39.9755 38.8008 38.0737 36.6139
178.8086 164.1854 157.4446 156.7008 154.4883
267.8422 260.6597 259.7901 247.1023 224.1805
246.0983 219.7442 206.5632 210.4354 215.6851
42.7751 39.9755 38.8008 38.0737 36.6139
30.2813 31.2752 32.3088 29.4547 24.4580
42.7751 39.9755 38.8008 38.0737 36.6139
176.1953 158.1492 149.2276 151.3535 154.0168
-223.6054 -209.9309 -204.3923 -199.8362 -190.9265
-39.3548 -34.9085 -32.6553 -33.4568 -34.6052
208.7765 185.4581 173.6737 177.7142 183.4477
30.2813 31.2752 32.3088 29.4547 24.4580
296.9815 280.1799 273.6763 266.5559 252.9110
42.7751 39.9755 38.8008 38.0737 36.6139
-245.8256 -231.0748 -225.1630 -219.9320 -209.7605
-229.1249 -213.5388 -206.8768 -203.4458 -196.4126
-38.6197 -41.2764 -43.4653 -38.7332 -30.5104
42.7751 39.9755 38.8008 38.0737 36.6139
-215.7134 -202.4224 -197.0171 -192.6998 -184.2366
263.5135 256.4278 255.5602 243.0926 220.5668
245.7447 218.1743 204.2262 209.0788 215.9913
79.4893 74.7072 72.7879 71.1061 67.8334
42.7751 39.9755 38.8008 38.0737 36.6139
42.7751 39.9755 38.8008 38.0737 36.6139
176.1953 158.1492 149.2276 151.3535 154.0168
42.7751 39.9755 38.8008 38.0737 36.6139
80.4076 77.2177 76.3088 73.3124 67.8078
30.2813 31.2752 32.3088 29.4547 24.4580
216.9911 198.5126 189.8731 189.5465 187.8376
30.2813 31.2752 32.3088 29.4547 24.4580
133.0908 122.6174 117.8577 116.9810 114.7869
-0.3294 4.4437 7.4309 3.7012 -2.6160
253.8771 244.6481 242.3064 232.1834 213.6811
-655.5162 -620.7668 -607.8761 -590.3229 -557.0933
-33.0507 -23.9134 -18.6345 -23.5553 -31.7161
-219.9125 -204.8988 -198.4707 -195.2202 -188.5422
-218.1278 -204.6864 -199.2196 -194.8552 -186.2996
-56.2439 -59.7220 -62.6648 -56.0806 -44.6260
176.1953 158.1492 149.2276 151.3535 154.0168
-19.6465 -11.2441 -6.2441 -11.5047 -20.3125
329.3767 314.7172 309.9957 298.9737 278.5463
99.6539 95.7318 94.6249 90.8867 84.0229
246.0983 219.7442 206.5632 210.4354 215.6851
30.2813 31.2752 32.3088 29.4547 24.4580
176.1953 158.1492 149.2276 151.3535 154.0168
30.2813 31.2752 32.3088 29.4547 24.4580
29.5127 13.5578 3.9577 14.4803 32.1504
-189.4772 -177.9130 -173.2343 -169.3554 -161.7747
296.9815 280.1799 273.6763 266.5559 252.9110
-38.6197 -41.2764 -43.4653 -38.7332 -30.5104
-83.4687 -78.7389 -76.9063 -74.9110 -71.0861
19.3155 17.7881 17.0927 16.9713 16.6626
35.8480 33.5073 32.5264 31.9126 30.6819
-43.8676 -41.2324 -40.1756 -39.2444 -37.4332
13.0369 11.9012 11.3662 11.3666 11.2978
30.7793 28.7088 27.8284 27.3493 26.3736
19.3155 17.7881 17.0927 16.9713 16.6626
19.3155 17.7881 17.0927 16.9713 16.6626
9.6927 9.0081 8.7104 8.5851 8.3213
14.0197 13.3243 13.0786 12.6656 11.8912
40.1739 36.7593 35.1638 35.0982 34.7732
-24.0871 -23.0440 -22.7169 -21.8881 -20.3557
35.8480 33.5073 32.5264 31.9126 30.6819
19.3155 17.7881 17.0927 16.9713 16.6626
-14.7025 -12.7407 -11.7105 -12.2463 -13.0758
-2.4130 -2.2291 -2.1465 -2.1259 -2.0783
-3.2660 -4.1908 -4.8148 -3.8642 -2.2363
23.0427 22.0943 21.8123 20.9806 19.4487
32.0141 30.5268 30.0288 29.0066 27.1042
35.8480 33.5073 32.5264 31.9126 30.6819
48.1276 44.1498 42.3093 42.1420 41.6022
-41.8279 -39.5099 -38.6242 -37.5833 -35.5970
-1.4966 -0.9240 -0.5855 -0.9331 -1.5141
40.1739 36.7593 35.1638 35.0982 34.7732
15.5554 15.7902 16.1483 14.8990 12.6994
-29.9388 -28.5110 -28.0222 -27.0952 -25.3653
-21.6538 -20.7249 -20.4363 -19.6843 -18.2950
19.3155 17.7881 17.0927 16.9713 16.6626
31.8135 30.0100 29.3111 28.5512 27.0943
27.6695 26.6564 26.3966 25.2990 23.2921
40.1739 36.7593 35.1638 35.0982 34.7732
19.3155 17.7881 17.0927 16.9713 16.6626
-1.4966 -0.9240 -0.5855 -0.9331 -1.5141
19.3155 17.7881 17.0927 16.9713 16.6626
29.8894 27.6305 26.6200 26.3498 25.7329
-26.0008 -24.8237 -24.4386 -23.5841 -21.9980
0.7672 1.6933 2.2842 1.5036 0.1771
34.4249 31.6031 30.3013 30.1632 29.7458
-1.4966 -0.9240 -0.5855 -0.9331 -1.5141
35.8480 33.5073 32.5264 31.9126 30.6819
19.3155 17.7881 17.0927 16.9713 16.6626
-29.7005 -28.3093 -27.8401 -26.9008 -25.1511
-47.3895 -44.7242 -43.6963 -42.5477 -40.3494
-2.4130 -2.2291 -2.1465 -2.1259 -2.0783
19.3155 17.7881 17.0927 16.9713 16.6626
-24.6032 -23.4997 -23.1416 -22.3250 -20.8106
26.5513 25.5853 25.3400 24.2819 22.3478
40.7265 37.3205 35.7380 35.6278 35.2241
7.0952 6.5027 6.2275 6.2076 6.1362
19.3155 17.7881 17.0927 16.9713 16.6626
19.3155 17.7881 17.0927 16.9713 16.6626
29.8894 27.6305 26.6200 26.3498 25.7329
19.3155 17.7881 17.0927 16.9713 16.6626
29.4120 27.5100 26.7168 26.1987 25.1643
-1.4966 -0.9240 -0.5855 -0.9331 -1.5141
39.2255 36.7587 35.7445 34.9987 33.5263
-1.4966 -0.9240 -0.5855 -0.9331 -1.5141
23.4618 22.2828 21.8619 21.1828 19.9073
12.8878 12.4404 12.3347 11.8043 10.8370
29.4204 28.1596 27.7684 26.7456 24.8562
-113.3490 -106.7095 -104.0851 -101.5458 -96.6401
9.9788 9.9279 10.0314 9.3883 8.2457
-45.7256 -43.1952 -42.2293 -41.0886 -38.9123
-24.8426 -23.7114 -23.3393 -22.5280 -21.0213
-11.1059 -10.7315 -10.6474 -10.1815 -9.3332
29.8894 27.6305 26.6200 26.3498 25.7329
12.6461 12.3052 12.2630 11.6653 10.5854
39.6063 37.4891 36.6991 35.6525 33.6683
32.4899 30.4475 29.6080 28.9896 27.7689
40.1739 36.7593 35.1638 35.0982 34.7732
-1.4966 -0.9240 -0.5855 -0.9331 -1.5141
29.8894 27.6305 26.6200 26.3498 25.7329
-1.4966 -0.9240 -0.5855 -0.9331 -1.5141
1.4704 0.1778 -0.6125 0.3031 1.8463
-19.9990 -19.1652 -18.9137 -18.2003 -16.8851
35.8480 33.5073 32.5264 31.9126 30.6819
-2.4130 -2.2291 -2.1465 -2.1259 -2.0783
-135.1740 -129.6870 -128.0810 -123.1417 -114.0536
8.3989 7.8353 7.5960 7.4641 7.1959
90.6526 86.0219 84.3489 81.7839 76.9556
-81.8683 -79.1311 -78.5257 -75.0735 -68.7889
-3.5618 -3.3563 -3.2758 -3.1936 -3.0352
22.6028 21.6811 21.4098 20.5873 19.0733
8.3989 7.8353 7.5960 7.4641 7.1959
8.3989 7.8353 7.5960 7.4641 7.1959
52.2918 50.0765 49.3971 47.5592 44.1669
61.9797 59.9584 59.5320 56.8785 52.0527
72.1693 64.7405 61.0630 61.9629 63.1033
-69.3867 -65.6150 -64.1919 -62.4074 -59.0145
90.6526 86.0219 84.3489 81.7839 76.9556
8.3989 7.8353 7.5960 7.4641 7.1959
-7.2043 -3.2161 -0.8141 -3.4562 -7.8941
-9.8346 -10.7557 -11.4664 -10.0691 -7.6494
-1.6580 -5.5434 -8.0012 -4.8333 0.5428
36.2602 34.1898 33.3838 32.5294 30.8887
90.1916 87.0847 86.3604 82.6292 75.8273
90.6526 86.0219 84.3489 81.7839 76.9556
85.4238 76.7313 72.4415 73.4276 74.6433
-61.0203 -57.2559 -55.7239 -54.5064 -52.1186
13.4755 13.4080 13.5484 12.6791 11.1345
72.1693 64.7405 61.0630 61.9629 63.1033
67.8605 68.0108 69.0253 64.2620 55.8306
-80.0096 -75.5174 -73.7868 -71.8415 -68.1198
-63.5743 -60.0296 -58.6700 -57.1049 -54.1147
8.3989 7.8353 7.5960 7.4641 7.1959
47.6149 44.1312 42.5935 42.0728 40.9371
88.6096 86.4526 86.3023 81.9326 74.0574
72.1693 64.7405 61.0630 61.9629 63.1033
8.3989 7.8353 7.5960 7.4641 7.1959
13.4755 13.4080 13.5484 12.6791 11.1345
8.3989 7.8353 7.5960 7.4641 7.1959
45.0429 40.5071 38.2749 38.7575 39.3351
-72.3079 -68.2632 -66.7087 -64.9388 -61.5551
-3.5642 -2.6822 -2.1777 -2.6271 -3.3695
64.3478 57.5829 54.2153 55.1288 56.3338
13.4755 13.4080 13.5484 12.6791 11.1345
90.6526 86.0219 84.3489 81.7839 76.9556
8.3989 7.8353 7.5960 7.4641 7.1959
-79.1042 -74.7570 -73.1050 -71.1077 -67.3026
-71.1220 -66.8010 -65.0573 -63.5857 -60.7138
-9.8346 -10.7557 -11.4664 -10.0691 -7.6494
8.3989 7.8353 7.5960 7.4641 7.1959
-70.0474 -66.0934 -64.5650 -62.8785 -59.6484
87.1955 85.0719 84.9234 80.6242 72.8761
73.3612 65.5368 61.6274 62.7568 64.2796
22.5045 21.1840 20.6615 20.1592 19.1882
8.3989 7.8353 7.5960 7.4641 7.1959
8.3989 7.8353 7.5960 7.4641 7.1959
45.0429 40.5071 38.2749 38.7575 39.3351
8.3989 7.8353 7.5960 7.4641 7.1959
19.8433 19.2402 19.1314 18.2471 16.6434
13.4755 13.4080 13.5484 12.6791 11.1345
57.7137 53.2041 51.1603 50.7548 49.7605
13.4755 13.4080 13.5484 12.6791 11.1345
35.0283 32.6435 31.6237 31.1008 30.0283
-1.6157 -0.0283 0.9448 -0.1926 -2.1109
80.6380 78.1583 77.6977 74.1272 67.6488
-193.7963 -184.6941 -181.6171 -175.5070 -164.1234
-8.5390 -5.9577 -4.4555 -5.9003 -8.3026
-68.3035 -64.1610 -62.4908 -61.0719 -58.3043
-70.9886 -66.9765 -65.4244 -63.7193 -60.4523
-26.7977 -27.0937 -27.6426 -25.5756 -21.9310
45.0429 40.5071 38.2749 38.7575 39.3351
-4.8838 -2.5484 -1.1508 -2.6525 -5.1706
102.9777 98.9383 97.8029 93.9295 86.8187
27.4994 26.5540 26.3343 25.1952 23.1188
72.1693 64.7405 61.0630 61.9629 63.1033
13.4755 13.4080 13.5484 12.6791 11.1345
45.0429 40.5071 38.2749 38.7575 39.3351
13.4755 13.4080 13.5484 12.6791 11.1345
6.3256 1.7655 -1.0069 2.1449 7.4511
-62.1003 -58.6206 -57.2817 -55.7664 -52.8684
